breksi 0.136376 0.305200 -0.104593 -0.115202 0.142129 -0.451306 -0.609239 0.295310 -0.329497 0.022012 0.564116 0.211815 0.105224 0.255658 0.113486 0.135070 -0.266537 -0.086728 0.066531 0.295899 -0.413348 0.680467 -0.327290 -0.067274 0.615932 -0.380148 0.370088 0.291324 0.348197 -0.004832 -0.026556 0.120850 0.049572 0.258630 0.353933 -0.136078 -0.065646 0.393515 0.145650 0.276355 -0.189062 -0.082041 0.042010 0.315339 0.261077 -0.207627 0.407723 0.169345 0.210921 -0.481284 -0.166466 0.331098 -0.340230 -0.193114 0.301154 0.004381 0.161199 -0.144312 -0.507224 -0.037791 0.035552 -0.483386 0.076879 0.016459 -0.078243 -0.242807 0.110753 0.263394 0.153349 0.409691 -0.349309 0.301823 0.151093 0.681223 0.254748 -0.262305 -0.299735 -0.521608 -0.225018 0.185089 0.177621 -0.162690 0.110014 0.829101 -0.068909 -0.450359 0.079670 0.059808 -0.058848 -0.342950 0.027003 0.379911 0.214278 -0.613251 -0.008277 0.432152 0.069264 0.149429 0.762886 -0.111144
abuabu 0.283645 0.536747 -0.025837 -0.130498 0.040424 -0.444050 -0.788407 0.380173 -0.571727 -0.057836 0.685057 0.361361 0.091035 0.453342 0.300733 0.099547 -0.332405 -0.190782 0.133295 0.273849 -0.568808 0.978994 -0.355459 -0.099949 0.952058 -0.341996 0.469691 0.199308 0.351620 0.107475 -0.034942 0.239447 0.070508 0.464099 0.388177 -0.204378 -0.042533 0.544040 0.020846 0.521175 -0.308451 -0.131391 -0.115613 0.365376 0.437882 -0.156973 0.310176 0.128062 0.262800 -0.616286 -0.099949 0.397896 -0.496860 -0.268434 0.264032 0.064242 0.155157 -0.121483 -0.588140 0.139839 0.181266 -0.509613 0.074627 0.029871 -0.129719 -0.217843 0.306741 0.350401 0.242728 0.612928 -0.332618 0.466015 0.300028 0.818612 0.302242 -0.227192 -0.301982 -0.677764 -0.217482 0.168742 0.212925 -0.219588 0.073726 1.061834 -0.194914 -0.702375 0.072505 0.089515 -0.023819 -0.383954 0.008072 0.410950 0.135769 -0.823932 -0.074888 0.502648 0.034199 0.345334 0.767044 -0.137142
dan 0.502670 0.492348 0.481780 -0.279431 0.093224 -0.212405 -0.334752 0.078189 -0.821349 -0.355461 0.302144 0.024372 -0.068521 0.152049 0.330032 0.238203 -0.285346 -0.202839 -0.192174 0.412697 -0.283850 0.563045 -0.204913 0.157571 0.558856 -0.229771 0.047226 -0.427417 0.423396 0.051001 -0.289109 0.423775 -0.052824 0.383779 0.271556 -0.272499 -0.008248 0.185310 0.064878 0.479159 0.031380 -0.021037 -0.434542 -0.053235 0.002786 0.083011 0.042544 -0.139858 0.154658 -0.718049 -0.417694 0.124111 -0.333248 -0.337724 0.029527 -0.101441 -0.209720 -0.159019 -0.205817 0.067820 0.242378 0.062799 0.101370 0.354583 0.170479 -0.081273 -0.055648 0.490161 -0.012725 1.039817 0.090542 0.340578 0.692697 0.121713 0.379578 -0.018618 -0.354326 -0.898954 0.034213 0.302403 0.244131 0.000639 0.020436 0.597688 0.078691 -0.768774 0.049780 0.460126 0.469598 -0.254469 -0.029447 0.420371 0.187971 -0.770937 -0.401710 0.265642 -0.117844 0.282517 0.636192 0.078052
batupasir 0.014304 0.216239 0.242527 -0.213364 -0.000540 -0.188559 -0.544470 0.338730 -0.818729 -0.027736 0.168603 -0.366079 0.164337 0.086136 0.664406 0.186127 -0.080346 -0.145405 0.043584 0.034147 -0.436120 0.328185 0.114344 -0.092443 0.037145 0.103437 0.299666 -0.579949 0.305411 -0.201986 -0.551328 0.662795 -0.069603 0.538050 0.067801 -0.343299 -0.090080 0.118749 -0.418785 0.158676 0.327675 0.114403 -0.415090 -0.493299 -0.298477 0.595650 0.058920 -0.197198 0.025334 -0.128299 -0.107265 0.348959 -0.203393 -0.410157 -0.285919 -0.274007 -0.490672 -0.450655 0.036164 0.071997 -0.250752 0.148040 0.047751 0.527153 0.489343 -0.068057 0.010868 0.437843 0.154672 0.725746 0.265350 0.217153 0.654242 -0.173238 0.021546 -0.161316 0.233862 -0.441749 0.276025 0.146951 0.203135 -0.191487 0.358814 0.189263 0.257288 -0.542368 -0.117613 1.113721 0.705889 0.307481 -0.154935 0.347151 0.078569 -0.149909 -0.285763 -0.567120 -0.074843 0.604798 0.095623 -0.336998
berwarna 0.196369 0.505168 0.198391 -0.132370 -0.099053 -0.387630 -0.716497 0.475447 -0.941211 -0.094030 0.429972 0.096313 0.074635 0.323611 0.589641 0.142312 -0.178976 -0.275969 0.108514 0.063699 -0.616839 0.889370 -0.152320 0.030593 0.752217 -0.023840 0.502534 -0.222463 0.239605 0.080236 -0.416286 0.526394 -0.065877 0.576798 0.243852 -0.325877 -0.005427 0.458287 -0.299576 0.520842 0.018416 -0.051389 -0.334588 -0.119347 0.233175 0.407138 0.145263 -0.232954 0.368702 -0.337164 -0.060171 0.433433 -0.446221 -0.330317 -0.117123 -0.082766 -0.139185 -0.273438 -0.374912 0.103734 0.017675 -0.325756 0.064986 0.228708 0.261605 -0.188913 0.281581 0.393852 0.228212 0.664975 0.035424 0.342203 0.564035 0.459853 0.020996 -0.189248 -0.094428 -0.689626 0.056325 0.079989 0.210077 -0.292028 0.206693 0.809105 -0.046471 -0.839989 0.023302 0.640888 0.436311 -0.052330 0.096674 0.314492 -0.090152 -0.571930 -0.215504 -0.114448 -0.093001 0.614231 0.428668 -0.230858
basal 0.030464 0.059970 -0.089224 0.191198 0.049703 -0.010892 0.097207 -0.126632 0.345261 0.321405 -0.152104 0.168973 -0.065917 -0.009296 -0.344406 0.001325 0.083520 0.105238 -0.129631 0.162208 -0.025385 -0.185803 0.009015 -0.048137 -0.037883 -0.372577 -0.037586 0.265108 0.073729 -0.064447 0.277638 -0.409202 -0.064523 -0.115629 -0.024361 0.060128 0.161339 -0.122824 0.200693 -0.269448 -0.233098 -0.240797 0.212716 0.225975 0.137242 -0.174656 -0.075456 0.043521 -0.243584 -0.214166 0.126048 -0.478477 0.258408 0.246226 0.216713 -0.026337 0.163154 0.309789 -0.044716 -0.342684 0.221714 -0.199294 -0.188533 -0.158413 -0.286546 -0.156291 0.023579 -0.288366 -0.150657 -0.116525 -0.087424 0.176574 -0.337023 0.362098 0.233027 0.040688 -0.012305 0.209838 -0.105413 -0.032311 0.034536 -0.152725 -0.154279 0.226717 -0.316148 0.273796 0.187213 -0.514001 -0.418892 -0.338333 0.053332 -0.267272 0.124654 -0.169020 0.169565 0.254801 -0.018587 -0.088864 -0.011313 0.104738
coklat 0.143426 0.331702 0.011444 -0.261100 0.044727 -0.339760 -0.947151 0.426721 -0.848545 0.045060 0.660156 -0.180858 0.247895 0.287164 0.703454 0.203288 -0.122214 -0.153291 0.166180 0.153759 -0.675558 0.702994 -0.185867 -0.282208 0.391547 -0.105073 0.498560 -0.434793 0.456016 -0.203688 -0.323245 0.583454 -0.037502 0.657193 0.269474 -0.401577 -0.086520 0.153846 -0.302103 0.014227 0.070479 -0.055496 -0.356820 -0.189991 -0.195523 0.211968 0.254703 0.109342 -0.058524 -0.465489 -0.100037 0.330968 -0.335749 -0.446808 0.062418 -0.146818 -0.313472 -0.361831 -0.356152 0.231022 -0.057275 -0.153150 0.001571 0.394075 0.315543 -0.168586 0.111616 0.381315 0.406663 0.916650 -0.170531 0.430252 0.621882 0.311139 0.427812 -0.197085 -0.001464 -0.597273 0.064438 0.100548 0.216818 -0.244629 0.294840 0.654504 -0.033127 -0.777811 -0.206936 0.910812 0.362108 0.014229 -0.420410 0.646573 0.234632 -0.373594 -0.225148 -0.041562 0.170149 0.606762 0.521013 -0.394639
putih 0.513430 0.420098 0.266128 -0.094485 -0.182016 0.166091 -0.170844 -0.040810 -0.414381 -0.234496 0.339242 0.437055 -0.213909 0.292070 0.268705 0.089667 -0.133158 -0.127840 -0.022676 0.143900 -0.170443 0.629627 -0.366741 -0.044345 0.571772 -0.153533 -0.098107 -0.301936 0.119995 0.178486 0.197052 -0.081313 0.082354 0.305858 0.217867 -0.149373 0.150408 0.101562 -0.090891 0.139255 -0.409117 -0.394629 -0.423680 0.357628 0.101795 0.036128 -0.304142 0.087528 -0.113581 -0.229224 0.049538 -0.277554 0.042634 -0.008041 0.266148 -0.094996 -0.033166 0.162737 -0.106904 0.383529 0.568046 0.160025 -0.012178 0.002339 -0.234124 0.034394 0.282506 -0.012522 0.115967 0.912253 -0.154021 0.494550 0.160447 0.126679 0.489937 0.267060 -0.396147 -0.212572 -0.133509 0.195279 -0.029226 0.111286 -0.376014 0.452372 -0.427186 -0.478527 -0.189891 -0.222585 -0.038686 -0.493702 -0.328522 0.360359 -0.106161 -0.575864 -0.448474 0.494375 0.161437 0.257589 0.102570 0.190150
andesit 0.255554 0.419870 0.140990 0.023083 -0.117449 -0.173126 -0.134036 0.141027 -0.409639 -0.224168 0.161540 0.411648 -0.152273 0.310074 0.062579 0.000726 -0.196539 -0.180616 0.047418 0.044185 -0.221387 0.629687 -0.271724 0.151693 0.710165 -0.048095 0.162759 0.146418 0.014340 0.283141 -0.050136 0.064480 0.029436 0.126560 0.244687 0.019652 0.100307 0.388444 -0.011372 0.642671 -0.301032 -0.066746 -0.106063 0.217226 0.565857 0.021158 0.015038 -0.094688 0.415917 -0.269999 0.068686 0.165522 -0.282924 -0.053632 0.061146 0.111314 0.240477 0.047180 -0.305409 0.018185 0.292029 -0.336143 0.034933 -0.054436 -0.158439 -0.012746 0.261008 0.171201 -0.007224 0.252430 -0.079704 0.268453 0.090045 0.447981 -0.044795 -0.060961 -0.247609 -0.396648 -0.181074 0.034384 0.053249 -0.090511 -0.080525 0.608163 -0.191072 -0.439490 0.181534 -0.235057 -0.036487 -0.234781 0.304480 0.086461 -0.160094 -0.503002 -0.119141 0.339448 -0.158173 0.173884 0.344403 0.103896
hitam 0.438760 0.427545 0.063092 -0.022450 -0.090493 -0.167684 -0.380149 0.148084 -0.310075 -0.056838 0.308870 0.400786 0.034418 0.330663 0.010204 0.117906 -0.125097 -0.196486 -0.048305 0.379454 -0.473909 0.563201 -0.445929 -0.083673 0.671256 -0.482649 0.137454 0.095276 0.248831 0.137911 0.178602 -0.175963 -0.045299 0.289083 0.495787 -0.211467 0.161976 0.203294 0.157440 0.201762 -0.474816 -0.468491 -0.153604 0.452755 0.369054 -0.138428 0.112985 -0.001903 -0.069156 -0.568421 0.017252 -0.285297 -0.115268 0.046401 0.409468 0.073317 0.267333 0.302746 -0.547521 -0.026714 0.584713 -0.417718 -0.053799 0.093131 -0.259764 -0.255954 0.262359 0.005131 0.145044 0.646602 -0.352638 0.578704 0.111338 0.678348 0.485714 0.093763 -0.338496 -0.288341 -0.295878 0.120818 0.141951 -0.061219 -0.323741 0.920427 -0.355628 -0.464768 0.130445 -0.488819 -0.279517 -0.593841 0.032971 0.216451 0.089197 -0.622308 -0.323825 0.693751 0.096736 0.149183 0.448102 0.003612
berbintik 0.523492 0.398206 0.186914 -0.133451 -0.051669 -0.005794 -0.165921 -0.044658 -0.315844 -0.319429 0.359332 0.386668 -0.151260 0.267724 0.025875 0.087875 -0.183854 -0.172881 -0.120445 0.315892 -0.196974 0.546956 -0.443034 0.030386 0.680679 -0.316274 -0.079336 -0.060802 0.183917 0.215379 0.157610 -0.114699 0.005403 0.155272 0.397138 -0.126268 0.118996 0.127473 0.179167 0.264273 -0.430603 -0.305565 -0.260241 0.422538 0.250792 -0.227369 -0.004097 0.069568 -0.030842 -0.501272 -0.085850 -0.234781 -0.125707 -0.002908 0.372034 0.053510 0.188676 0.237636 -0.359571 0.195595 0.590514 -0.128049 0.006724 0.019828 -0.255840 -0.072541 0.185518 0.086693 0.082348 0.734323 -0.288325 0.446934 0.189614 0.333204 0.461487 0.178018 -0.469341 -0.343569 -0.270304 0.165532 0.046506 0.122953 -0.371609 0.654625 -0.298772 -0.487439 0.011784 -0.422552 -0.170724 -0.536272 -0.060296 0.307774 0.031826 -0.610089 -0.373405 0.737854 0.069264 0.004565 0.436444 0.165863
batuapung 0.060644 -0.069547 0.081920 0.034490 -0.144936 0.281791 0.361782 -0.216404 0.240417 -0.052529 -0.137307 0.166791 -0.171844 -0.038012 -0.106259 -0.039724 0.087473 0.060966 0.015071 -0.075169 0.275867 -0.140539 -0.046100 0.027345 -0.083168 0.057171 -0.296609 -0.005230 -0.192593 0.071459 0.257804 -0.280749 0.087849 -0.167601 -0.101220 0.113759 0.106066 -0.127140 0.014911 -0.149053 -0.106670 -0.107602 -0.021488 0.138897 -0.029327 -0.052684 -0.267390 0.052996 -0.077194 0.292128 0.078253 -0.246098 0.223355 0.184097 0.064627 -0.005720 0.018766 0.149609 0.190824 0.125683 0.185452 0.261636 -0.050643 -0.146242 -0.190564 0.150899 0.025261 -0.233315 -0.072253 -0.033006 0.013927 -0.050221 -0.249290 -0.252731 0.016780 0.217979 -0.088659 0.297870 -0.038545 -0.001714 -0.125716 0.191841 -0.248362 -0.248512 -0.171054 0.202228 -0.096786 -0.393787 -0.131429 -0.110747 -0.121405 -0.086244 -0.146244 0.051742 -0.091090 0.135003 0.116188 -0.139691 -0.270157 0.230916
batuan 0.159223 0.242897 0.443303 -0.258957 0.266201 -0.316009 0.340180 -0.136149 -0.335513 -0.667729 0.204421 0.303503 -0.388016 0.101890 -0.104072 0.063341 -0.315754 -0.198073 -0.268777 0.064020 0.385708 0.586631 -0.058856 0.655529 0.781497 0.123496 0.054295 0.219693 -0.036122 0.477632 -0.318650 0.304035 -0.081361 -0.230758 0.023722 0.041450 -0.205060 0.552428 0.187352 0.994780 0.131176 0.419792 -0.127591 0.185140 0.316898 -0.122066 0.190929 -0.210172 0.895307 -0.050699 -0.447826 0.703774 -0.453293 -0.203684 -0.145478 0.131021 0.122101 -0.350824 -0.093198 0.113023 -0.200546 -0.123660 0.362972 -0.318550 0.213469 0.196612 0.071654 0.490833 -0.320634 -0.223676 0.188222 -0.357378 0.326887 0.015003 -0.603716 -0.099351 -0.491702 -0.626407 0.011574 0.196789 -0.056720 0.235186 0.024469 0.297130 0.375682 -0.328965 0.188897 0.157491 0.419311 0.053097 0.621279 0.087764 -0.285973 -0.478122 0.147447 0.007176 -0.348064 -0.323143 0.529905 0.377458
merah -0.185863 -0.070853 -0.256586 0.261679 0.071906 -0.187704 -0.067717 -0.000398 0.338992 0.439402 -0.073951 0.163563 0.020436 -0.060174 -0.316393 0.047038 0.085292 0.176251 0.011645 -0.019524 -0.117956 -0.142980 0.071548 -0.030196 -0.027856 -0.274730 0.104295 0.485568 -0.010005 -0.138772 0.184023 -0.348424 -0.050089 -0.162022 -0.083384 0.126689 0.131150 0.013750 0.120809 -0.322827 -0.119471 -0.118678 0.384110 0.113662 0.157501 -0.117828 0.095074 0.051819 -0.033888 -0.055491 0.159413 -0.187009 0.175642 0.165656 0.117083 -0.139213 0.163075 0.134024 -0.052323 -0.416183 -0.076950 -0.361768 -0.144332 -0.244074 -0.257076 -0.195941 -0.028138 -0.283010 -0.106976 -0.405820 -0.075931 0.055439 -0.427143 0.537748 -0.007934 -0.174841 0.063065 0.212708 -0.093215 -0.057045 -0.004948 -0.296650 0.057016 0.201917 -0.304659 0.250528 0.171665 -0.348380 -0.303609 -0.207617 0.149415 -0.283398 0.054567 -0.038236 0.371711 -0.015329 -0.087266 -0.046849 0.032812 -0.011058
kehitaman -0.065824 0.030311 -0.124338 0.228141 0.013879 -0.109722 -0.047458 0.021068 0.172784 0.352652 -0.146893 0.125846 0.020692 -0.011132 -0.199165 0.027140 0.053181 0.115996 -0.008852 0.030333 -0.150993 -0.103216 0.077347 -0.055311 -0.015432 -0.227737 0.075518 0.275954 0.045900 -0.091958 0.132466 -0.248033 -0.025228 -0.043554 -0.057386 0.076707 0.117480 0.008773 0.072323 -0.152195 -0.133608 -0.177996 0.218519 0.093101 0.169602 0.011717 -0.025860 -0.009559 -0.086706 -0.163638 0.152169 -0.246995 0.171687 0.150924 0.082996 -0.088779 0.083588 0.161131 0.006402 -0.332608 0.066800 -0.233226 -0.119123 -0.103848 -0.198660 -0.150881 0.029033 -0.194646 -0.120349 -0.142727 -0.013159 0.137216 -0.291290 0.406139 0.126598 -0.095441 0.076052 0.096472 -0.057564 -0.018177 0.040019 -0.266564 0.009768 0.189814 -0.256251 0.163243 0.152251 -0.287053 -0.253014 -0.219517 0.115041 -0.263051 0.069065 -0.135199 0.220128 0.030230 -0.095970 0.079467 -0.022887 -0.015317
terang 0.320878 0.219213 0.059975 -0.069874 -0.205501 0.027456 -0.260452 0.086103 -0.301245 -0.113798 0.373796 0.346451 -0.068010 0.271044 0.287773 0.080945 -0.097412 -0.041392 0.175251 0.080025 -0.235856 0.545010 -0.330057 -0.147297 0.501576 -0.055965 -0.023186 -0.077193 0.020002 0.073278 0.172866 -0.057802 0.128181 0.258808 0.162552 -0.116459 0.123944 0.140042 -0.067328 0.022343 -0.257359 -0.263582 -0.222033 0.281544 0.095341 -0.000883 -0.112087 0.162011 -0.016984 -0.093520 0.059906 -0.042293 0.002726 -0.027069 0.251717 -0.070537 0.015280 0.041669 -0.148776 0.334799 0.335347 0.074877 -0.007347 0.007878 -0.226511 0.023744 0.196164 0.004612 0.197475 0.653577 -0.203057 0.358142 0.041603 0.159619 0.376706 0.133832 -0.275572 -0.150793 -0.142197 0.144934 -0.019788 0.067299 -0.255280 0.367154 -0.350837 -0.409799 -0.232164 -0.182984 -0.034810 -0.353413 -0.312505 0.351269 -0.068898 -0.395630 -0.291278 0.390610 0.200880 0.220255 0.173739 0.061124
dengan -0.127284 0.228158 0.062285 -0.202367 0.175528 -0.216878 -0.152178 0.218997 -0.122452 -0.166704 0.188480 -0.097514 0.139370 0.116487 0.147801 -0.047080 -0.279390 -0.078753 0.075068 0.104193 0.041250 0.298257 0.005304 0.067151 0.097631 0.023226 0.302790 0.076878 0.202651 0.025071 -0.163093 0.411963 0.224159 0.162120 0.063353 0.001988 -0.361601 0.412479 0.028154 0.747048 0.056057 0.261219 -0.046108 0.073205 0.186879 -0.074126 0.236776 0.148862 0.308255 -0.129552 -0.282685 0.714631 -0.464057 -0.306701 -0.069861 0.236580 -0.011747 -0.366411 -0.093176 0.147429 -0.296245 -0.039236 0.232817 0.141953 0.163745 0.114852 -0.024157 0.401215 0.017371 -0.010242 -0.086161 -0.109458 0.218195 -0.007193 -0.120076 -0.309536 -0.034476 -0.452252 -0.035416 0.241953 0.227970 0.039116 0.320466 0.148707 0.484021 -0.111939 0.060993 0.413727 0.143221 0.205527 0.062476 0.242962 0.226832 -0.334081 0.018111 0.064806 0.077920 0.088899 0.364032 -0.050680
batulanau 0.010518 0.054567 -0.038314 -0.083161 0.063655 -0.093446 -0.184668 0.054090 -0.071430 -0.065324 0.232990 -0.005034 0.056360 0.069421 0.091761 0.015516 -0.055193 -0.013790 0.100148 0.096745 -0.072434 0.172395 -0.083307 -0.024514 0.194787 -0.055568 0.034840 0.022316 0.109037 0.006299 0.025996 0.092099 0.057138 0.044119 0.068291 -0.038560 -0.043018 0.110800 0.048738 0.069630 0.006825 0.062598 -0.014305 0.089868 0.004812 -0.166471 0.159893 0.141274 0.007891 -0.147932 -0.104439 0.167545 -0.152737 -0.089573 0.096167 0.048617 -0.012512 -0.091745 -0.110101 0.134170 -0.045218 -0.037213 0.047705 0.038659 -0.025549 -0.007546 0.003585 0.115164 0.091245 0.135181 -0.107502 0.028388 0.073759 0.054825 0.143794 -0.043598 -0.050109 -0.180537 -0.088127 0.049001 0.064950 0.007602 0.048898 0.140333 0.071389 -0.135835 -0.054373 0.067633 0.013964 -0.015507 -0.152394 0.164235 0.136441 -0.141808 0.017945 0.181395 0.130235 0.009316 0.218100 -0.039211
lava 0.082062 0.199107 0.238735 -0.135088 0.088258 -0.090697 -0.021323 -0.054017 -0.234132 -0.289193 0.120594 0.058928 -0.167716 -0.025488 0.050248 0.000813 -0.149756 -0.093934 -0.160357 -0.018900 0.159568 0.218280 0.105422 0.288428 0.361863 0.089670 0.034358 -0.037621 -0.018579 0.147975 -0.162538 0.200707 -0.036941 0.008519 -0.112651 -0.032239 -0.084546 0.211506 0.024767 0.371930 0.127671 0.229993 -0.114325 -0.054275 0.043431 -0.020679 -0.009816 -0.159254 0.275310 -0.073466 -0.244681 0.283825 -0.291069 -0.161467 -0.210514 -0.001280 -0.083417 -0.140924 0.066838 0.130975 -0.114204 0.048784 0.157297 -0.145722 0.068938 0.064124 -0.023910 0.275363 -0.089309 -0.042148 0.173204 -0.155148 0.322521 -0.048276 -0.227941 -0.043175 -0.218023 -0.331672 0.101525 0.109792 -0.003551 0.060248 0.054108 0.046079 0.129062 -0.270614 0.036704 0.286908 0.333119 0.042839 0.205249 -0.019507 -0.119531 -0.316899 0.043815 -0.120011 -0.210443 -0.051005 0.144248 0.134684
berongga 0.138786 -0.011860 0.061966 -0.031732 -0.156587 0.213475 0.169869 -0.117541 0.047259 -0.137199 0.040495 0.192098 -0.114684 0.040672 0.052176 -0.013642 0.030032 0.034052 0.051767 -0.051413 0.123240 0.060871 -0.124918 -0.024583 0.075011 0.094351 -0.214000 -0.081144 -0.149899 0.084511 0.199462 -0.165181 0.105525 -0.027150 -0.026405 0.015096 0.073245 -0.048342 -0.019315 -0.079645 -0.127675 -0.144787 -0.130709 0.166490 -0.046735 -0.022635 -0.214332 0.093761 -0.079560 0.185701 0.055811 -0.149161 0.152034 0.091355 0.107639 -0.027975 -0.017560 0.097278 0.110474 0.278990 0.192134 0.245002 0.013342 -0.075661 -0.163409 0.142698 0.055007 -0.136083 0.038593 0.191115 -0.058577 0.041596 -0.111622 -0.200950 0.134539 0.208701 -0.160715 0.149869 -0.057551 0.067126 -0.114142 0.194714 -0.266068 -0.147370 -0.176668 -0.015861 -0.202543 -0.264897 -0.064889 -0.141106 -0.223650 0.098680 -0.128035 -0.017491 -0.179877 0.172956 0.154322 -0.040253 -0.170519 0.161387
bata -0.178014 -0.094843 -0.243952 0.200610 0.066473 -0.167001 -0.054150 0.004138 0.295213 0.373305 -0.053369 0.132586 0.008963 -0.053763 -0.254462 0.024354 0.053397 0.160496 0.008069 -0.034404 -0.071776 -0.109973 0.068157 -0.027838 -0.026988 -0.198188 0.099667 0.427329 -0.019767 -0.106188 0.132900 -0.261052 -0.043286 -0.136660 -0.088829 0.096327 0.088950 0.013367 0.103165 -0.273577 -0.062298 -0.058249 0.342227 0.089796 0.101770 -0.087500 0.089188 0.047560 0.002691 -0.006078 0.134787 -0.125016 0.157909 0.140192 0.087776 -0.132755 0.123338 0.088931 -0.013296 -0.329501 -0.119653 -0.279491 -0.101798 -0.226321 -0.190060 -0.160445 -0.027155 -0.199186 -0.112054 -0.385482 -0.050041 0.007396 -0.367179 0.406448 -0.060668 -0.149286 0.056018 0.202279 -0.053507 -0.049243 -0.020975 -0.221422 0.065839 0.119430 -0.221932 0.226657 0.129010 -0.257019 -0.231221 -0.173497 0.136597 -0.223339 0.033782 -0.008229 0.328446 -0.043799 -0.083075 -0.043436 0.027749 -0.020610
singkapan 0.044947 0.203234 0.402026 -0.316854 0.262005 -0.220598 0.228075 -0.088623 -0.327885 -0.451766 0.090571 0.074729 -0.292083 0.023753 0.136067 0.083479 -0.398798 -0.103995 -0.257037 0.063547 0.315778 0.353688 0.178379 0.445493 0.382743 0.198847 0.049373 -0.005250 0.072506 0.194096 -0.407555 0.523322 0.027650 -0.060006 -0.235325 -0.042607 -0.302813 0.435962 -0.029785 0.795740 0.261853 0.474415 -0.147048 -0.107891 0.022704 0.100359 -0.008073 -0.085778 0.604125 0.029458 -0.398217 0.707804 -0.337105 -0.334870 -0.306322 -0.094347 -0.269630 -0.467036 0.282766 0.174664 -0.431954 0.269763 0.298342 -0.150391 0.255611 0.244301 -0.025866 0.573026 -0.322125 -0.027696 0.364300 -0.257013 0.385928 -0.306357 -0.564334 -0.135528 -0.173470 -0.506044 0.252522 0.307847 -0.009415 0.226918 0.248813 -0.061648 0.441505 -0.220669 0.090966 0.630959 0.563997 0.188203 0.304944 0.091563 -0.107732 -0.394410 0.104374 -0.332217 -0.376538 -0.079184 0.248592 0.227092
tuff 0.215088 0.073108 0.178922 -0.049612 -0.008576 0.095219 0.038972 -0.099693 -0.145189 -0.107442 -0.077936 0.051455 -0.141101 -0.026091 0.024540 0.028173 -0.084839 -0.049556 -0.110736 0.082951 0.061936 0.019885 -0.059058 0.103275 0.063456 -0.023253 -0.187408 -0.220855 0.032022 0.081232 -0.079430 0.036860 -0.017160 0.003984 0.041183 -0.013416 0.061497 -0.073481 0.044456 0.056923 0.022698 0.006690 -0.129510 -0.010901 -0.039343 0.077353 -0.153061 -0.165750 0.014895 -0.153575 -0.069138 -0.146642 0.040737 0.016571 -0.010106 -0.064133 -0.053414 0.051046 0.075252 -0.002306 0.154318 0.172477 0.005252 0.077270 0.017597 -0.012535 -0.026781 0.067254 -0.165789 0.293924 0.130748 0.025692 0.161104 -0.180299 0.074747 0.155882 -0.113750 -0.139296 0.064952 0.026008 -0.000527 0.034356 -0.104232 -0.030536 0.012709 -0.144849 0.021363 0.006674 0.173293 -0.151642 -0.012087 -0.004088 -0.032925 -0.103298 -0.207742 0.042225 -0.102840 -0.012441 0.036030 0.118989
serat -0.010033 0.051000 -0.022413 -0.003846 -0.017944 -0.044442 -0.108171 0.072069 -0.087851 0.029096 0.070473 0.021685 0.015158 0.056505 0.080716 0.006494 -0.005962 -0.029871 0.034576 -0.016731 -0.095483 0.118908 -0.015183 -0.029504 0.088002 0.016011 0.086909 -0.002769 0.011367 0.008746 -0.039431 0.051931 -0.014632 0.078312 0.021111 -0.041058 0.012462 0.055336 -0.057319 0.015726 -0.006071 -0.022435 -0.024699 -0.008359 0.034786 0.050527 0.021679 -0.008040 0.024922 0.004612 0.032105 0.056079 -0.035105 -0.023057 -0.017112 -0.003342 -0.004874 -0.026597 -0.062328 0.022372 -0.008569 -0.066196 -0.014027 -0.004507 0.014715 -0.026838 0.063992 0.013024 0.064842 0.039441 -0.021997 0.055955 0.027825 0.079531 -0.011814 -0.019667 0.013562 -0.026233 -0.001540 -0.023259 0.012574 -0.052275 0.025611 0.095786 -0.046360 -0.077437 -0.013135 0.064819 0.016641 0.006828 -0.002698 0.018631 -0.035732 -0.015237 -0.006695 -0.031697 0.009248 0.080626 0.016325 -0.049235
mengandung 0.114190 0.123863 0.088538 0.005399 -0.224405 -0.034342 -0.220569 0.125930 -0.276191 -0.063556 -0.011134 0.145208 0.062373 0.145105 0.082984 -0.018935 -0.024826 -0.133778 0.039461 -0.047262 -0.256815 0.131623 -0.099585 0.005306 0.274111 -0.021940 0.035208 -0.005773 -0.107809 0.040340 -0.078416 -0.000001 -0.046326 0.135037 0.218629 -0.033525 0.132562 0.138143 -0.058660 0.203003 -0.107562 -0.060600 -0.138757 -0.061373 0.204460 0.223054 -0.028210 -0.290000 0.121748 -0.048351 0.075814 -0.011486 -0.123221 0.006821 -0.066739 0.001822 0.124084 0.046355 -0.196590 -0.062472 0.185984 -0.164192 -0.064505 0.109007 -0.062997 -0.079716 0.153776 0.043800 0.070921 0.128553 0.037022 0.148297 0.143357 0.234209 -0.129148 -0.003943 -0.058650 -0.089250 -0.019505 -0.035417 0.071066 -0.103845 -0.084809 0.260422 -0.126186 -0.281055 0.127354 -0.059902 0.160557 -0.058201 0.261178 -0.051156 -0.196587 -0.182349 -0.214196 -0.035402 -0.187939 0.135182 0.038796 -0.060053
kasar 0.046880 0.091766 0.088007 -0.167236 0.069049 -0.109114 -0.437233 0.140604 -0.516050 0.035376 0.237025 -0.248368 0.114230 0.044314 0.419182 0.147741 0.027540 -0.075737 0.017793 0.033619 -0.302503 0.167738 0.048248 -0.135975 0.009051 0.001212 0.164769 -0.454863 0.251249 -0.184971 -0.286853 0.388941 -0.094046 0.320223 0.074919 -0.226287 -0.033277 -0.080002 -0.261011 -0.135692 0.197429 0.039094 -0.283648 -0.298098 -0.337209 0.252069 0.058030 -0.041619 -0.127255 -0.198769 -0.073937 0.071666 -0.067787 -0.267799 -0.082459 -0.232541 -0.365903 -0.242754 -0.016954 0.096449 -0.104976 0.065811 -0.027290 0.313846 0.310108 -0.046855 -0.022240 0.224209 0.130419 0.547838 0.089817 0.186656 0.431575 -0.066060 0.206418 -0.054777 0.109912 -0.254935 0.164440 0.015729 0.090747 -0.158815 0.218614 0.144280 0.054260 -0.359849 -0.134156 0.704420 0.400786 0.174968 -0.288108 0.288919 0.119944 -0.025276 -0.120970 -0.294098 0.021312 0.337964 0.116670 -0.232787
kecoklatan -0.160130 -0.031025 -0.019787 -0.044590 0.013019 -0.089697 -0.379258 0.219448 -0.303458 0.055209 0.111381 -0.352018 0.214567 -0.044678 0.330066 0.052723 0.103120 -0.075407 0.124228 -0.043213 -0.214605 0.009767 0.131320 -0.085975 -0.152122 0.050370 0.141559 -0.273616 0.143391 -0.192343 -0.257063 0.265622 -0.074074 0.198794 0.050822 -0.123754 -0.003603 0.050174 -0.230700 -0.116223 0.262260 0.097701 -0.089641 -0.283704 -0.263275 0.265756 0.192653 -0.088426 -0.105351 0.067451 -0.065687 0.237251 -0.135857 -0.200902 -0.167071 -0.082394 -0.233653 -0.269811 -0.070577 0.005023 -0.231452 0.009315 0.007651 0.315855 0.303128 -0.089896 0.023484 0.150310 0.245728 0.183817 0.143039 -0.001969 0.298577 -0.090274 0.014211 -0.092957 0.248420 -0.128141 0.073704 -0.020488 0.098151 -0.150537 0.224454 0.008903 0.241551 -0.128529 -0.106795 0.625410 0.362194 0.373089 -0.141227 0.155201 0.075121 0.171745 -0.035840 -0.390226 0.074052 0.223044 -0.006039 -0.303031
batu 0.019813 -0.055214 0.174496 0.000660 -0.003876 0.178218 0.326068 -0.122775 0.075790 -0.143166 -0.306150 -0.295048 0.066035 -0.170566 -0.118276 -0.019087 0.082047 -0.010510 -0.075980 0.126417 0.209266 -0.392760 0.059223 0.061041 -0.409122 0.033469 -0.234688 -0.255963 0.009268 -0.058094 -0.002433 -0.039350 0.020949 -0.097442 0.009105 0.066769 0.048488 -0.203797 0.146617 0.051963 0.129452 0.032773 -0.050266 -0.145430 -0.117713 -0.032136 -0.032558 -0.099366 -0.128688 -0.058555 -0.176423 -0.100347 -0.007720 -0.003669 -0.093200 0.217968 -0.011997 0.059684 0.032599 -0.133129 0.118809 0.204693 0.024071 0.279722 0.110605 0.074954 -0.219738 0.002939 0.009899 0.047706 0.142145 -0.149576 0.108503 -0.318959 0.101550 0.082511 0.060662 -0.089218 0.003069 0.012864 0.102362 0.158048 -0.066999 -0.261427 0.287119 0.169843 0.035835 -0.032015 0.045966 0.211821 0.013716 -0.050260 0.120494 0.155333 -0.158252 0.071681 0.074485 -0.152176 -0.046635 0.086514
batugamping 0.068939 0.144887 0.138054 -0.191204 0.127937 -0.098432 0.061704 -0.012230 -0.074440 -0.206732 0.081366 0.138847 -0.147749 0.049644 0.087672 -0.010419 -0.350210 -0.043266 -0.091786 0.089826 0.174375 0.257857 0.037545 0.161836 0.212221 0.092835 -0.000351 0.080659 0.055546 0.119709 -0.111215 0.303923 0.120338 0.025341 -0.158519 -0.021728 -0.234787 0.288236 0.018002 0.456694 0.074300 0.243425 -0.009153 0.031287 0.064491 -0.024535 -0.062321 0.081946 0.309505 0.016863 -0.213858 0.419274 -0.163074 -0.146659 -0.109609 -0.057969 -0.121513 -0.224084 0.189130 0.207594 -0.237886 0.211064 0.171127 -0.161181 0.032678 0.146271 -0.008548 0.347811 -0.179895 0.032094 0.128467 -0.088731 0.127656 -0.197738 -0.262654 -0.058925 -0.131413 -0.279568 0.134898 0.200148 -0.016224 0.176088 0.125959 -0.078951 0.214815 -0.066312 0.022009 0.246389 0.189276 -0.043552 0.071974 0.071719 0.017122 -0.297192 0.007491 -0.014706 -0.176232 -0.042146 0.164069 0.148352
berserat -0.201892 -0.184001 -0.138037 0.129015 0.021138 0.021026 0.152234 -0.045693 0.298042 0.184315 -0.184026 -0.050433 0.031358 -0.129423 -0.168948 -0.031014 0.102621 0.108895 0.019780 -0.108941 0.099331 -0.293095 0.136080 -0.010079 -0.264819 0.024509 -0.029503 0.172530 -0.109497 -0.078652 0.072619 -0.144660 0.002751 -0.175055 -0.149297 0.117509 0.010475 -0.080828 0.017489 -0.199958 0.054300 0.027283 0.203245 -0.058274 -0.020626 -0.016629 -0.005057 0.005870 -0.029043 0.187934 0.087587 -0.052069 0.127186 0.100013 -0.053469 -0.014494 0.028292 0.037632 0.114423 -0.149043 -0.138605 -0.031099 -0.040871 -0.104277 -0.041342 0.000467 -0.071988 -0.179962 -0.072629 -0.398092 0.031991 -0.143766 -0.246525 -0.001662 -0.142789 -0.050644 0.143345 0.253481 0.023144 -0.086618 -0.058081 -0.053835 0.057902 -0.219536 -0.019798 0.292604 0.041125 -0.132040 -0.115537 0.091210 0.059899 -0.212707 -0.016164 0.246657 0.202313 -0.164735 -0.027028 -0.100690 -0.188608 -0.008378
kehijauan 0.185088 0.326620 0.092742 -0.096696 -0.072697 -0.149839 -0.439045 0.266694 -0.519618 -0.090757 0.279700 0.071576 0.069887 0.236064 0.357470 0.072989 -0.143302 -0.162383 0.113860 0.098848 -0.384601 0.519893 -0.145450 -0.085571 0.417314 -0.030818 0.245365 -0.178714 0.171801 0.045864 -0.153465 0.296410 0.027887 0.368078 0.192709 -0.180297 -0.028126 0.238222 -0.166070 0.323780 -0.082870 -0.078016 -0.229298 -0.006461 0.157445 0.158255 0.059495 -0.036311 0.109411 -0.269681 -0.006298 0.207316 -0.245683 -0.184954 0.022238 -0.001855 -0.060177 -0.105316 -0.247184 0.152989 0.113467 -0.168973 0.047209 0.179610 0.073182 -0.064701 0.173535 0.231311 0.185013 0.524547 -0.071205 0.288523 0.326012 0.240396 0.152721 -0.072419 -0.042464 -0.379772 -0.022623 0.044262 0.122679 -0.125539 0.076424 0.485421 -0.055280 -0.470198 -0.019933 0.271021 0.141147 -0.049552 -0.049853 0.216549 0.027014 -0.333153 -0.197484 0.086670 0.022612 0.346894 0.255052 -0.141190
muda 0.076564 0.154984 -0.104600 -0.020460 0.039220 -0.239956 -0.417160 0.206178 -0.215528 0.111777 0.306824 0.086220 0.120893 0.179297 0.161721 0.094936 -0.121704 -0.016459 0.079095 0.158622 -0.382533 0.327131 -0.093741 -0.119556 0.321638 -0.166014 0.287318 0.102386 0.192736 -0.074734 -0.035854 0.132070 -0.013339 0.235719 0.137965 -0.127174 -0.004046 0.170037 -0.001726 0.067442 -0.097631 -0.067518 0.029220 0.046642 0.095528 -0.035199 0.203433 0.112877 0.040185 -0.335628 0.015908 0.138972 -0.130595 -0.109979 0.140248 -0.040912 0.039889 -0.041096 -0.254085 -0.002617 -0.004699 -0.253477 -0.023529 0.064110 -0.034637 -0.154926 0.091760 0.119946 0.150536 0.231932 -0.147138 0.250648 0.105272 0.446952 0.174271 -0.137999 -0.008396 -0.238294 -0.097691 0.031759 0.118561 -0.141831 0.114358 0.443304 -0.137755 -0.239098 0.003606 0.086972 -0.055647 -0.109800 -0.053020 0.183020 0.140746 -0.236976 0.052979 0.119045 0.019440 0.182257 0.340138 -0.179091
kuning 0.040874 0.013010 -0.091318 -0.006529 -0.099432 0.028996 -0.052855 0.012138 0.076387 0.013414 0.180892 0.243037 -0.008342 0.116225 0.042821 0.010665 0.005918 0.046292 0.154709 -0.011991 -0.041080 0.170943 -0.134063 -0.090736 0.216057 -0.011640 -0.019644 0.161973 -0.077779 0.033761 0.218091 -0.148098 0.115822 0.014884 0.005146 0.023298 0.044845 0.091250 -0.000443 -0.071803 -0.149769 -0.118276 0.026331 0.216177 0.065204 -0.098248 -0.024465 0.176037 0.004537 0.100747 0.079849 0.010226 0.049717 0.058879 0.167719 -0.013708 0.056890 0.044314 -0.049116 0.207384 0.081172 0.010393 -0.016773 -0.132426 -0.204489 0.044901 0.115035 -0.108766 0.103958 0.049107 -0.164020 0.093722 -0.173306 0.115429 0.112751 0.059316 -0.104878 0.113364 -0.126120 0.033713 -0.060837 0.075705 -0.132903 0.090673 -0.225021 -0.012953 -0.137791 -0.272008 -0.164563 -0.156725 -0.166989 0.093792 -0.047866 -0.099168 0.005798 0.213473 0.162320 0.004565 0.013036 0.047488
vulkanik 0.132515 0.044449 0.016781 -0.059613 -0.010099 -0.072984 -0.164559 0.055637 -0.201592 -0.117733 0.181796 0.074278 0.023755 0.077413 0.060354 0.025679 -0.132692 -0.051688 0.038347 0.067303 -0.077567 0.251799 -0.189361 -0.022257 0.217609 -0.080360 -0.023397 0.021339 0.091381 0.026778 -0.007236 0.021970 -0.006726 0.073679 0.199790 -0.020148 0.006177 0.112206 0.058458 0.085468 -0.056998 -0.027302 -0.068556 0.103918 0.057009 -0.072377 0.087183 0.015261 0.086550 -0.138126 -0.067886 0.047137 -0.103102 -0.065575 0.105207 -0.004816 0.070644 -0.056844 -0.141112 0.020436 0.097638 -0.058893 0.058239 0.047339 -0.027464 -0.044698 0.019354 0.160729 0.058723 0.311759 -0.082926 0.100599 0.097949 0.098648 0.085012 -0.015999 -0.179752 -0.236958 -0.080874 0.080529 0.017831 0.016787 -0.025890 0.188363 0.006846 -0.221316 0.007230 0.015763 0.058467 -0.140717 0.020337 0.221195 0.012552 -0.204523 -0.141050 0.206201 -0.016202 0.025130 0.276927 0.001233
gelap 0.109177 0.181507 -0.024241 -0.006914 -0.075564 -0.104598 -0.245224 0.138279 -0.197169 -0.087404 0.215106 0.214457 0.006681 0.171120 0.047101 -0.023938 -0.128003 -0.092618 0.069420 0.057360 -0.174267 0.371936 -0.164597 -0.001735 0.437444 -0.097322 0.092265 0.157022 0.010148 0.116250 0.021715 -0.011934 0.051390 0.106957 0.201603 -0.012824 0.034894 0.251526 0.046437 0.265196 -0.177766 -0.048334 -0.025722 0.192183 0.285949 -0.069870 0.097567 -0.033389 0.152775 -0.176676 0.004109 0.126741 -0.222005 -0.040263 0.090279 0.083008 0.182837 0.032222 -0.254976 0.060941 0.153226 -0.210576 0.038127 0.001756 -0.136344 -0.084697 0.145544 0.101128 0.087184 0.144589 -0.132109 0.142319 0.053005 0.326127 0.011917 -0.047625 -0.168387 -0.210801 -0.140713 0.039667 0.065102 -0.055162 -0.055910 0.373106 -0.093898 -0.277341 0.065855 -0.159297 -0.043035 -0.178239 0.127582 0.058008 -0.053699 -0.295022 -0.074333 0.238991 -0.040896 0.070752 0.244161 -0.024577
pasir 0.027914 0.036520 0.145618 0.007791 -0.007357 0.150309 0.253182 -0.054624 0.020605 -0.090342 -0.294515 -0.323643 0.136057 -0.151055 -0.092147 -0.027960 0.064665 0.022334 -0.051508 0.159586 0.143475 -0.322541 0.027494 -0.014754 -0.439062 0.002258 -0.134251 -0.286866 0.071688 -0.082153 0.022962 0.000864 0.090201 0.027026 0.026921 0.044233 0.017803 -0.208536 0.165521 0.134306 0.074872 -0.026524 -0.090530 -0.128853 -0.087677 -0.013326 -0.045173 -0.058550 -0.172404 -0.192452 -0.156984 -0.108354 -0.030011 -0.033709 -0.065152 0.242642 -0.018111 0.072968 0.014213 -0.128833 0.162663 0.171432 0.036932 0.351556 0.103683 0.061837 -0.271445 0.022866 0.034804 0.142410 0.077480 -0.068669 0.118610 -0.236765 0.231810 0.012256 0.041964 -0.154025 -0.011555 0.064846 0.177703 0.113617 -0.038857 -0.189446 0.277153 0.130578 0.027924 -0.007676 -0.018800 0.135498 -0.023036 -0.010820 0.199822 0.010471 -0.193049 0.175339 0.136257 -0.014125 -0.003520 0.075705
kuarsa 0.022655 0.124924 0.155899 -0.068068 -0.017225 -0.099037 -0.220755 0.132690 -0.417305 -0.083229 0.063578 -0.111216 0.022846 0.038642 0.260652 0.050210 -0.034035 -0.104567 -0.011660 -0.040166 -0.164975 0.194143 0.072586 0.069722 0.131228 0.054291 0.142012 -0.218367 0.080978 -0.009685 -0.292909 0.279658 -0.090104 0.210715 0.044921 -0.127298 -0.027191 0.128263 -0.182640 0.176920 0.127254 0.085001 -0.204649 -0.189870 -0.060422 0.309410 0.008274 -0.187178 0.098875 -0.061181 -0.044332 0.169971 -0.131484 -0.167444 -0.163143 -0.123950 -0.166883 -0.208779 0.008182 0.024882 -0.099184 0.037767 0.022059 0.188364 0.204534 -0.032903 0.051653 0.205751 0.012660 0.241755 0.175456 0.074047 0.322654 -0.039821 -0.099414 -0.069956 0.037381 -0.222636 0.118522 0.060102 0.085447 -0.114708 0.126036 0.117856 0.115676 -0.300406 0.010379 0.496045 0.368476 0.109110 0.077078 0.092974 -0.052596 -0.146305 -0.097466 -0.296948 -0.130284 0.262212 0.025278 -0.116967
lapuk 0.126027 0.179117 0.139213 -0.112379 0.037574 -0.016631 -0.416414 0.163483 -0.489170 -0.013745 0.299060 -0.191424 0.068104 -0.009802 0.403868 0.111397 0.097030 -0.121180 -0.009037 -0.028482 -0.248194 0.283452 0.028865 -0.055714 0.090912 -0.038280 0.174542 -0.469026 0.199641 -0.133939 -0.205148 0.289380 -0.096814 0.366971 0.005647 -0.276056 0.009046 -0.055615 -0.263245 -0.225455 0.110315 -0.088731 -0.295736 -0.207458 -0.316027 0.251930 -0.025444 -0.042766 -0.234068 -0.156778 -0.064242 -0.031377 -0.059824 -0.231447 -0.021358 -0.242839 -0.292931 -0.145646 -0.076761 0.180165 0.012464 0.118858 -0.078625 0.230486 0.251917 -0.080352 -0.004073 0.098471 0.249295 0.571322 0.026485 0.241211 0.436346 -0.002498 0.271736 -0.005672 0.005834 -0.244929 0.125484 0.033278 0.029034 -0.138166 0.088190 0.272771 -0.093720 -0.419820 -0.201110 0.611767 0.282988 0.030576 -0.298983 0.283070 0.038087 -0.100600 -0.172180 -0.181618 0.081597 0.368883 0.033984 -0.184921
berpori -0.044987 -0.040710 -0.068346 0.135831 -0.035519 0.103379 0.156562 -0.087797 0.281173 0.200231 -0.157177 0.103274 -0.054383 -0.020443 -0.178938 -0.045840 0.080096 0.093150 -0.006130 -0.013323 0.082461 -0.177745 0.032434 -0.059449 -0.144326 -0.091616 -0.073682 0.132361 -0.058657 -0.036319 0.209422 -0.266174 0.019597 -0.104918 -0.092222 0.087493 0.091994 -0.104245 0.053152 -0.192689 -0.115702 -0.123908 0.125439 0.104674 0.046428 -0.048096 -0.136299 0.052219 -0.144182 0.084966 0.145777 -0.274099 0.213875 0.184097 0.075304 0.007205 0.081029 0.168384 0.082164 -0.122699 0.090558 0.001740 -0.107094 -0.134835 -0.168247 -0.009551 0.028908 -0.232719 -0.077342 -0.157685 -0.025313 0.021488 -0.289385 0.061658 0.057900 0.062079 0.049502 0.259382 -0.030454 -0.046545 -0.046758 -0.036956 -0.095230 -0.061843 -0.191541 0.269792 0.035488 -0.323586 -0.249030 -0.119011 -0.018164 -0.173788 -0.003723 0.039730 0.092653 0.069477 0.028826 -0.055745 -0.168024 0.083236
tufaan 0.088955 0.205132 0.153160 -0.099254 -0.019991 -0.019955 -0.289512 0.163037 -0.440792 -0.010378 0.137492 -0.099333 0.035675 0.049487 0.364349 0.101417 0.007887 -0.096325 -0.011387 -0.027293 -0.256048 0.268245 0.024196 -0.023059 0.108395 0.032880 0.168420 -0.362560 0.136634 -0.055916 -0.224133 0.308138 -0.029932 0.306485 0.016275 -0.205903 -0.009441 0.019228 -0.258606 0.002920 0.064267 -0.064240 -0.267229 -0.225358 -0.135418 0.330356 -0.050613 -0.107630 -0.043164 -0.080038 0.004526 0.046546 -0.061989 -0.177757 -0.083665 -0.188073 -0.228494 -0.123758 -0.018647 0.125463 -0.001614 0.060434 -0.022577 0.198748 0.217634 -0.058251 0.033133 0.102881 0.138291 0.429533 0.077618 0.206739 0.324464 0.023469 0.080991 -0.039720 0.051792 -0.189313 0.116420 0.039968 0.065488 -0.130236 0.114783 0.213613 -0.070147 -0.350652 -0.108045 0.467899 0.252331 0.034827 -0.131087 0.156520 -0.024141 -0.111933 -0.179228 -0.208865 0.015675 0.372300 -0.012743 -0.154593
batulempung 0.095679 0.169562 0.113583 -0.057064 0.044764 0.012085 -0.129976 0.078919 -0.215567 -0.065710 0.090801 -0.102143 0.066618 -0.007804 0.131949 0.027729 -0.000880 -0.060357 -0.026458 0.055881 -0.070695 0.149555 -0.020550 0.016288 0.013153 -0.053444 0.073109 -0.231897 0.138684 -0.028476 -0.058452 0.150237 0.032902 0.176798 0.059580 -0.081145 -0.035994 0.006263 -0.034383 0.093465 0.011716 -0.045226 -0.151208 -0.051013 -0.065730 0.067777 0.007594 -0.024689 -0.067929 -0.189464 -0.103193 0.029166 -0.098131 -0.122021 0.016066 -0.009179 -0.066710 -0.047381 -0.082283 0.067644 0.068565 0.037030 0.020359 0.166042 0.124082 -0.018898 -0.069729 0.089279 0.118608 0.292232 -0.020852 0.098035 0.213050 0.032964 0.170965 -0.045273 -0.063313 -0.235075 -0.003759 0.073649 0.098137 -0.044082 0.028682 0.170340 0.046541 -0.177915 -0.040211 0.215023 0.065798 -0.011669 -0.080109 0.148299 0.088614 -0.154722 -0.131943 0.084353 0.092209 0.160578 0.112903 -0.036948
beku 0.150639 0.241548 0.259800 -0.178145 0.145073 -0.258310 0.034273 -0.011828 -0.336709 -0.361833 0.237567 0.199140 -0.205139 0.132942 0.028559 0.084377 -0.179865 -0.148540 -0.142050 0.104563 0.081933 0.485608 -0.103695 0.352081 0.585618 0.008797 0.113548 0.080968 0.055874 0.269343 -0.219851 0.213464 -0.079845 -0.028673 0.085147 -0.053673 -0.095077 0.353293 0.092648 0.553423 0.062606 0.191833 -0.128179 0.112769 0.193832 -0.036780 0.155400 -0.130102 0.529170 -0.136966 -0.281716 0.424078 -0.297190 -0.150448 -0.045797 0.067982 0.052556 -0.224866 -0.168387 0.075680 -0.086232 -0.159232 0.202517 -0.134763 0.162649 0.040656 0.090003 0.285314 -0.132711 0.022719 0.053311 -0.117949 0.277113 0.132736 -0.242406 -0.074312 -0.320368 -0.462736 -0.003083 0.120367 0.009544 0.081057 0.014374 0.362970 0.144246 -0.340754 0.090105 0.143227 0.287618 -0.044979 0.292039 0.137305 -0.138553 -0.379167 0.034565 0.035984 -0.170176 -0.096133 0.423151 0.181991
yang -0.034394 0.062233 -0.066265 0.060162 -0.147951 -0.089831 -0.131699 0.120409 -0.036669 0.058563 -0.071686 0.086293 0.138954 0.085947 -0.053863 -0.055545 0.117890 -0.083377 0.073423 -0.080104 -0.246686 -0.021120 -0.078836 0.026509 0.205526 -0.035067 0.105862 0.118467 -0.138798 0.045836 -0.015335 -0.095046 -0.038398 -0.015021 0.206740 -0.017455 0.111039 0.050475 -0.010653 0.163669 -0.119336 -0.101228 -0.006383 -0.018783 0.234100 0.125295 0.097163 -0.232408 0.066399 -0.043233 0.136698 -0.032701 -0.097878 0.088318 0.032522 0.085082 0.171523 0.125007 -0.222137 -0.122666 0.110643 -0.378252 -0.089938 0.027626 -0.048857 -0.086219 0.155573 -0.128802 0.104701 -0.163775 -0.057656 0.016627 -0.064190 0.336016 -0.077999 -0.028467 0.070783 0.075473 -0.094612 -0.119370 0.072037 -0.178037 -0.076829 0.254370 -0.111702 -0.061682 0.143882 -0.232715 -0.108365 0.006249 0.217415 -0.158468 -0.144717 -0.005838 0.000063 0.005445 -0.050202 0.039239 -0.019037 -0.106252
keabuan 0.098972 0.118342 0.032747 -0.169542 0.056354 -0.052078 -0.317043 0.051463 -0.290957 -0.066080 0.300619 -0.115238 0.072076 0.128699 0.273242 0.040789 -0.076425 -0.060706 0.044042 0.122532 -0.134535 0.237844 -0.117257 -0.119107 0.128563 -0.061166 0.081690 -0.261123 0.238194 -0.038241 -0.047882 0.245521 0.002757 0.247469 0.099510 -0.152049 -0.065248 -0.010918 -0.061463 -0.012960 0.049050 0.046721 -0.208958 -0.011303 -0.157094 -0.092275 0.054905 0.120802 -0.102992 -0.236486 -0.134250 0.094378 -0.163622 -0.197947 0.052764 0.023010 -0.183370 -0.146749 -0.095969 0.189645 -0.010098 0.095245 0.028043 0.175090 0.117938 -0.003696 0.006957 0.184240 0.132620 0.422914 -0.074645 0.126302 0.287323 -0.054693 0.249744 0.018609 -0.042505 -0.254712 0.048895 0.056736 0.105669 0.024057 0.077618 0.156430 0.082008 -0.284309 -0.088582 0.376402 0.168130 -0.023162 -0.330996 0.336470 0.183085 -0.185606 -0.128225 0.114485 0.156178 0.161520 0.215087 -0.090770
warna -0.065425 0.091217 -0.022749 -0.104338 0.058033 -0.132007 -0.481756 0.244456 -0.352031 0.052380 0.286248 -0.187052 0.162665 0.044852 0.367524 0.048032 0.020648 -0.098731 0.100687 -0.026356 -0.245680 0.251663 0.054594 -0.105795 0.056400 -0.029817 0.234656 -0.240060 0.178051 -0.152541 -0.205448 0.298047 -0.055026 0.306181 0.048189 -0.200388 -0.048670 0.103713 -0.247892 -0.080016 0.156215 0.057132 -0.137325 -0.150948 -0.236302 0.192894 0.134345 0.003243 -0.118154 -0.012708 -0.045759 0.235875 -0.134050 -0.226592 -0.063967 -0.170657 -0.226782 -0.267595 -0.107812 0.122794 -0.191645 -0.021523 -0.021701 0.202963 0.239820 -0.085609 0.090646 0.199075 0.243604 0.340145 0.052923 0.129150 0.321155 0.014476 0.082278 -0.087370 0.138351 -0.183191 0.086944 0.015654 0.066654 -0.161876 0.190531 0.206700 0.107322 -0.224152 -0.135861 0.626456 0.294728 0.208558 -0.222222 0.248621 0.067707 -0.020587 -0.034831 -0.263362 0.076265 0.278206 0.083552 -0.255368
padat 0.064209 0.006456 -0.012892 0.013156 -0.076620 0.078549 -0.036101 -0.012052 0.011871 -0.008318 0.065034 0.112097 -0.035336 0.077602 0.008031 -0.027940 -0.029748 -0.002374 0.033016 -0.013606 0.009953 0.080121 -0.079605 -0.022958 0.095556 -0.018995 -0.044657 0.016129 -0.048698 0.032359 0.086261 -0.076067 0.054451 0.026960 0.046618 0.016991 0.050066 0.022864 0.022572 0.012869 -0.087340 -0.032411 -0.035201 0.095352 0.036676 -0.012824 -0.066525 -0.016395 0.000184 0.018810 0.054148 -0.037186 0.024798 0.042083 0.058257 0.020856 0.067714 0.044589 -0.037716 0.062357 0.102353 0.038399 -0.007792 -0.008430 -0.083449 -0.011311 0.075878 -0.040640 0.008113 0.074779 -0.044793 0.029502 -0.044449 0.019979 0.010205 0.059374 -0.055088 0.037277 -0.039187 0.000521 0.006836 0.036523 -0.076837 0.047709 -0.065097 -0.018463 -0.027947 -0.142693 -0.034870 -0.100517 -0.026238 0.011574 -0.069844 -0.043369 -0.074458 0.095696 0.020279 0.003199 0.000313 0.028179
serpih 0.181147 0.188497 0.216656 -0.159754 0.038952 0.003679 0.010963 -0.007939 -0.203672 -0.191433 0.002686 -0.054820 -0.015612 0.035600 0.106567 0.034187 -0.193512 -0.050856 -0.061262 0.206606 0.071223 0.118621 -0.076744 0.037177 0.015678 -0.006225 -0.042691 -0.206457 0.141097 0.041050 -0.090383 0.226966 0.108695 0.137777 0.041028 -0.061197 -0.078776 0.054140 0.089849 0.327936 0.052065 0.089253 -0.143999 -0.031781 0.000884 -0.012458 -0.041064 -0.007841 0.093994 -0.227572 -0.218470 0.160929 -0.167904 -0.147527 -0.047129 0.113051 -0.074724 -0.107513 0.010160 0.075169 0.062069 0.194012 0.108346 0.189176 0.095116 0.065809 -0.110554 0.274760 -0.061008 0.337585 0.065998 0.015374 0.265955 -0.197235 0.100732 0.001310 -0.120136 -0.368575 0.047678 0.139727 0.115623 0.155276 0.019021 0.020334 0.200319 -0.179667 -0.009679 0.151822 0.184018 -0.039593 -0.037756 0.171698 0.144110 -0.269332 -0.237292 0.171225 -0.009321 0.047227 0.234695 0.099434
batulumpur 0.080219 0.077264 -0.089419 0.002531 0.003621 -0.007330 -0.158074 -0.016136 -0.028023 0.005269 0.174766 0.085652 -0.009486 0.141161 0.019004 -0.029182 -0.074733 -0.002638 0.031577 0.064019 -0.056262 0.181628 -0.152828 -0.075121 0.163383 -0.100809 0.039091 0.051851 0.083883 0.043698 0.135022 -0.038449 0.036115 0.070851 0.103865 0.008795 0.009288 0.031919 0.065480 -0.019149 -0.136999 -0.027619 -0.014902 0.163090 0.066204 -0.209233 0.014508 0.143691 -0.068889 -0.157805 -0.012589 -0.030990 -0.042552 -0.001332 0.138489 0.053344 0.062401 0.061810 -0.119486 0.097118 0.097311 -0.033579 0.000982 -0.035483 -0.124752 -0.012518 0.065350 0.023000 0.060161 0.136943 -0.164552 0.115743 -0.029016 0.131902 0.157341 0.035087 -0.119387 -0.070050 -0.078147 -0.004751 0.034341 0.019762 -0.049430 0.138105 -0.100491 -0.089667 0.009128 -0.090216 -0.117784 -0.186475 -0.147756 0.137413 0.095297 -0.165364 -0.035097 0.264035 0.117092 0.005005 0.153711 0.001758
rijang 0.165998 0.204354 0.104144 -0.076136 0.036042 -0.155675 -0.122436 0.092591 -0.264207 -0.159565 0.131130 0.122749 -0.030409 0.149683 0.037015 0.063397 -0.100281 -0.125027 -0.062142 0.197208 -0.114462 0.346764 -0.158830 0.073025 0.365609 -0.144975 0.103785 0.035390 0.130243 0.148136 -0.053441 0.050728 -0.053782 0.115831 0.211588 -0.114302 0.002854 0.215598 0.071057 0.290910 -0.077426 -0.068347 -0.091151 0.185632 0.154345 -0.016782 0.131776 -0.073205 0.141981 -0.224223 -0.068190 0.072419 -0.115019 -0.063351 0.102229 0.064834 0.073248 -0.016807 -0.235187 0.015261 0.142949 -0.166975 0.105453 0.091073 0.022692 -0.069929 0.100041 0.197422 -0.024956 0.235040 -0.080731 0.165063 0.161130 0.175936 0.088720 0.020616 -0.182551 -0.247490 -0.111089 0.103465 0.063031 0.036001 -0.106686 0.396897 0.055484 -0.234076 0.076272 -0.054312 0.036379 -0.162758 0.147413 0.139547 0.021831 -0.266605 -0.129219 0.215832 -0.002646 0.040396 0.267604 0.001515
breccias 0.032312 -0.048771 -0.012458 -0.027565 0.000172 0.007565 0.008979 -0.010541 -0.037017 -0.036934 0.040239 -0.023479 0.015211 -0.008669 0.015872 0.005489 -0.029742 0.000210 0.028819 -0.009196 0.022879 0.030586 -0.072272 -0.023133 -0.004669 0.005563 -0.077216 0.000825 0.024256 -0.008263 0.010887 -0.012272 -0.024847 -0.021309 0.057277 0.011084 0.009309 -0.014924 0.018074 -0.067925 0.011787 -0.011362 -0.011293 -0.012188 -0.042144 -0.038981 0.025475 0.014589 0.018661 0.021828 -0.014722 -0.030822 0.005558 -0.011511 0.035776 -0.001873 0.005964 -0.029928 -0.008345 0.004093 0.009793 0.016640 0.022099 0.007444 0.021227 -0.011302 -0.027203 0.029520 0.039291 0.099566 -0.009422 -0.003035 -0.010023 -0.035211 0.011073 0.018755 -0.036610 -0.038702 -0.019163 0.001748 -0.031466 0.042140 -0.002197 -0.028499 -0.005653 -0.024319 -0.016298 -0.005903 0.013284 -0.019270 -0.023114 0.096353 -0.005786 0.030681 -0.052963 0.054966 0.017211 -0.019481 0.062883 0.007173
masif 0.048838 -0.006176 0.101137 0.026378 -0.079010 -0.004561 -0.091569 0.088572 -0.244903 0.041746 -0.126170 -0.150687 0.035391 0.003578 0.196872 0.110616 0.017315 -0.036359 0.000992 0.045981 -0.215293 -0.020607 0.022114 -0.076541 -0.066639 0.042933 -0.013094 -0.242876 0.077487 -0.059670 -0.179440 0.173673 -0.064236 0.176758 0.022237 -0.160639 0.057069 -0.100487 -0.144803 -0.086643 0.157643 -0.062502 -0.128946 -0.235685 -0.131044 0.253279 -0.036794 -0.122117 -0.069894 -0.023975 0.038754 -0.109241 0.080968 -0.032731 -0.134955 -0.149702 -0.188800 -0.015938 0.110473 -0.088471 0.004176 0.090561 0.014106 0.241079 0.150734 -0.092969 -0.032188 0.097159 -0.030229 0.337402 0.147160 0.121995 0.151851 -0.154361 0.052953 0.034500 0.167710 -0.049089 0.130833 0.009554 0.053801 -0.074742 0.056098 -0.050231 0.037774 -0.159998 -0.019847 0.231611 0.241039 0.033872 -0.037276 0.038574 0.034451 0.077439 -0.214215 -0.196466 -0.036049 0.225472 -0.107255 -0.134508
bertekstur -0.038684 -0.015537 -0.083610 0.045227 -0.041797 0.001773 0.057389 0.027882 -0.052313 0.072542 -0.073426 -0.033235 0.030630 0.007874 -0.011765 0.002741 0.099394 -0.005437 0.072378 -0.057471 -0.075982 -0.051048 -0.042588 -0.062194 -0.053522 0.056644 0.048133 -0.021868 -0.031214 -0.005916 -0.029809 -0.007808 0.039911 -0.041283 0.058138 0.044249 0.070103 -0.128290 -0.042640 -0.013933 -0.062845 -0.073384 0.017359 -0.059853 0.059167 0.058127 0.005424 0.002496 0.008132 -0.030487 0.134280 -0.089489 0.057781 0.023769 0.041004 0.012895 -0.005847 0.096610 -0.042954 -0.051204 0.111282 -0.135610 -0.054377 0.072738 0.021360 0.013481 -0.014162 -0.118799 0.009238 0.009536 -0.073783 0.038258 -0.109201 0.063492 0.082463 -0.020991 0.073871 0.066831 -0.060136 -0.136484 -0.002489 -0.067249 0.043574 0.018071 -0.104633 0.018724 0.007287 -0.138181 -0.176139 0.036162 -0.013588 -0.035755 -0.002708 0.170232 0.016930 0.043360 0.026817 0.058852 -0.032461 -0.065611
keras 0.131488 0.057552 0.137283 -0.012367 -0.038766 -0.002907 -0.066808 0.055376 -0.246017 -0.057206 -0.028034 -0.049386 0.005350 0.036201 0.175184 0.110205 -0.038361 -0.032091 0.000268 0.083622 -0.176097 0.090334 -0.087027 -0.015916 0.048483 0.005989 -0.014288 -0.198318 0.103347 -0.006392 -0.129980 0.170012 -0.033949 0.161955 0.070261 -0.146841 0.023287 -0.034452 -0.057100 0.017953 0.080141 -0.073457 -0.147350 -0.123707 -0.045235 0.133292 -0.014304 -0.030227 -0.011317 -0.111043 -0.034560 -0.045663 -0.002076 -0.062490 -0.045182 -0.092270 -0.104792 -0.012950 0.036698 -0.007475 0.057972 0.089575 0.019734 0.205370 0.089620 -0.044562 -0.045717 0.118725 -0.020889 0.390144 0.043865 0.134976 0.145866 -0.100383 0.118404 0.022347 0.040181 -0.170953 0.049851 0.067381 0.077847 -0.012511 0.026541 0.041484 0.032760 -0.238839 -0.022507 0.152503 0.168050 -0.065110 -0.061186 0.156571 0.067348 -0.054492 -0.242465 -0.003737 -0.004105 0.173622 0.053822 -0.061323
lempung -0.019047 -0.066553 0.080540 0.014253 -0.029564 0.098920 0.090197 -0.037269 -0.027758 -0.070953 -0.110180 -0.203433 0.047483 -0.099942 0.013986 0.011744 0.111743 -0.039519 -0.016267 0.030381 0.048982 -0.204708 0.045025 0.024664 -0.209639 0.029474 -0.132840 -0.198852 0.011340 -0.057247 -0.044395 -0.034793 -0.051765 -0.047491 0.032203 0.015049 0.087454 -0.109130 -0.003677 -0.100504 0.113798 -0.000288 -0.044186 -0.113808 -0.142023 0.048852 0.028184 -0.093261 -0.106857 0.047033 -0.081661 -0.063760 0.004574 -0.014300 -0.068292 0.075105 -0.048538 -0.004272 -0.029049 -0.064089 0.049423 0.096450 -0.009834 0.188903 0.110840 -0.001007 -0.052235 -0.020473 0.093511 0.066049 0.109906 -0.073867 0.101754 -0.173859 0.057835 0.081265 0.075994 -0.020281 -0.010332 -0.028841 0.033052 0.041826 -0.040067 -0.128160 0.150101 0.055205 -0.023288 0.079596 0.106812 0.199218 -0.036991 0.017546 0.023159 0.189020 -0.085066 -0.068455 0.061842 -0.065942 -0.064206 -0.030666
konglomerat 0.019973 0.067237 0.142405 -0.098193 0.064362 -0.052755 0.009594 -0.043018 -0.118681 -0.163829 0.042508 -0.025742 -0.040677 -0.043048 0.008602 0.005052 -0.085113 -0.034626 -0.101014 0.016412 0.108975 0.051024 0.072979 0.149060 0.112824 0.031531 0.005614 -0.040297 0.017912 0.048773 -0.093449 0.122090 -0.031466 0.012590 -0.052807 -0.029960 -0.071788 0.095471 0.033187 0.201176 0.103941 0.139659 -0.069337 -0.049142 -0.036802 -0.021618 0.011669 -0.087261 0.128572 -0.048796 -0.174275 0.159876 -0.162552 -0.097445 -0.127644 0.005469 -0.062502 -0.112172 0.042158 0.052452 -0.083208 0.047186 0.087989 -0.033268 0.065341 0.056543 -0.055494 0.191307 -0.045277 -0.027792 0.108052 -0.100844 0.195532 -0.071327 -0.124289 -0.028349 -0.115020 -0.179934 0.065451 0.090479 0.025101 0.066141 0.045229 -0.019683 0.146342 -0.108184 0.027840 0.212622 0.201263 0.057842 0.128570 0.008896 -0.019425 -0.177454 0.017239 -0.067339 -0.111315 -0.037519 0.089425 0.072138
kelabu 0.004256 0.033224 -0.020582 -0.002368 -0.080362 -0.079427 -0.270301 0.223468 -0.280904 0.074293 0.026534 -0.075002 0.123576 0.036923 0.244450 0.035229 0.017280 -0.088529 0.078292 0.007784 -0.279102 0.127357 0.033260 -0.104254 0.061005 0.034284 0.121186 -0.145303 0.066507 -0.056530 -0.144167 0.215521 -0.049985 0.217327 0.058541 -0.146366 -0.002457 0.054606 -0.175707 0.013433 0.103135 -0.062128 -0.077520 -0.164168 -0.044432 0.232615 0.042924 -0.113958 0.010925 -0.027770 0.051559 0.044598 -0.022994 -0.038767 -0.074146 -0.109081 -0.122074 -0.056769 -0.058582 0.014557 -0.039714 -0.107918 0.017746 0.148132 0.143662 -0.095456 0.074823 0.112159 0.100749 0.228703 0.066413 0.114042 0.155027 0.056348 0.015529 -0.014824 0.130065 -0.089098 0.063197 -0.051026 0.054920 -0.128770 0.098028 0.117609 0.005713 -0.174169 -0.016380 0.238568 0.145306 0.069631 -0.021466 0.024592 0.008165 0.039121 -0.097588 -0.146966 0.005235 0.255403 -0.025560 -0.192004
halus -0.090107 -0.022070 0.038957 -0.027521 -0.000654 0.078194 0.095659 0.063181 -0.078936 0.013700 -0.192708 -0.332221 0.150724 -0.102126 0.077282 0.002495 0.067203 0.015899 0.017810 0.016476 0.032670 -0.207955 0.081644 -0.083037 -0.405472 0.118598 0.024082 -0.258692 0.064474 -0.088043 -0.119827 0.170444 0.102080 0.080272 -0.023875 0.000190 -0.062364 -0.141830 -0.031467 0.077039 0.143989 0.032038 -0.063614 -0.217407 -0.128014 0.146948 -0.005153 -0.027219 -0.070029 -0.016332 -0.059964 0.056085 -0.024391 -0.095690 -0.135097 0.113231 -0.152854 -0.060400 0.067242 -0.042469 -0.033954 0.122393 0.057914 0.294778 0.218341 0.048219 -0.171230 0.048068 0.036695 0.065506 0.061396 -0.085921 0.106478 -0.240069 0.103237 -0.065166 0.153129 -0.069918 0.055026 -0.015017 0.095513 0.039910 0.136982 -0.216701 0.233023 0.078187 -0.048266 0.205523 0.064113 0.230507 -0.055068 0.035230 0.138053 0.179211 -0.109638 -0.093433 0.102665 0.113774 -0.088068 -0.096688
perselingan 0.018248 0.130921 0.201974 -0.184650 0.117848 -0.139087 -0.117392 0.070269 -0.332353 -0.161551 0.103235 -0.056301 -0.061337 0.031905 0.242037 0.092624 -0.229615 -0.060828 -0.079214 0.036611 0.000382 0.230559 0.102126 0.111442 0.131745 0.089297 0.108049 -0.128122 0.147110 0.000421 -0.281655 0.385097 0.025338 0.155111 -0.103488 -0.111220 -0.165773 0.223503 -0.138391 0.319050 0.175711 0.215654 -0.139506 -0.161391 -0.090068 0.200363 0.008419 -0.036349 0.212085 -0.022252 -0.174010 0.397158 -0.183860 -0.255663 -0.180123 -0.143103 -0.253624 -0.328520 0.146874 0.115598 -0.262026 0.186741 0.123013 0.066568 0.189538 0.065778 0.009782 0.363973 -0.058616 0.203249 0.200396 -0.006583 0.321567 -0.159160 -0.190149 -0.109370 -0.000327 -0.302964 0.176629 0.205696 0.022511 0.064895 0.207159 0.004494 0.223675 -0.216939 -0.020886 0.579589 0.391336 0.114801 0.049256 0.150170 -0.002385 -0.221765 -0.033429 -0.263786 -0.171020 0.169137 0.124422 -0.011949
kristal -0.077903 -0.121501 -0.057315 -0.000172 -0.039709 0.089312 0.143418 -0.002665 0.051262 0.042669 -0.123458 -0.148712 0.046663 -0.054973 0.006093 -0.036693 0.059425 0.030295 0.037586 -0.055301 0.053962 -0.190179 0.016390 -0.074882 -0.270064 0.144465 -0.024077 -0.099285 -0.048638 -0.023632 -0.052789 0.036301 0.060603 -0.030751 -0.044458 0.057178 -0.022522 -0.139888 -0.027737 -0.038771 0.062211 0.011981 0.002117 -0.089251 -0.073566 0.097325 -0.048099 0.000413 -0.031697 0.103511 0.055779 -0.043351 0.091539 0.032463 -0.039592 0.064169 -0.062240 0.022694 0.068223 -0.005605 -0.005804 0.077681 0.003863 0.094664 0.094246 0.055856 -0.052900 -0.060428 -0.013590 -0.073142 -0.006732 -0.084526 -0.064035 -0.193124 0.008015 0.005685 0.104426 0.125410 0.029050 -0.078924 -0.026216 0.057922 0.054037 -0.237258 0.074258 0.150122 -0.024388 -0.011271 -0.061564 0.114936 -0.030624 -0.032718 0.001439 0.243284 -0.016787 -0.058975 0.044466 0.019520 -0.139906 -0.057071
klastik -0.107660 -0.026458 0.124855 -0.147083 0.254735 -0.095650 0.450684 -0.184612 0.265384 -0.276434 -0.010613 0.157607 -0.219523 -0.053428 -0.222381 -0.079414 -0.234155 0.036208 -0.170433 -0.031117 0.497027 0.038497 0.146652 0.356579 0.113536 0.154077 -0.048029 0.321869 -0.096503 0.176951 -0.063980 0.114411 0.104001 -0.329487 -0.245540 0.183725 -0.285006 0.296241 0.159674 0.551171 0.100809 0.375631 0.121166 0.149318 0.140985 -0.213019 0.006823 0.096448 0.442598 0.201874 -0.275707 0.494726 -0.161575 -0.096631 -0.111371 0.082184 0.027985 -0.243207 0.213436 0.084211 -0.374710 0.133900 0.224159 -0.365483 0.022291 0.249110 -0.057033 0.211453 -0.317244 -0.516895 0.120467 -0.407134 -0.057938 -0.195762 -0.506778 -0.128176 -0.174133 -0.125184 0.090216 0.168863 -0.078318 0.209146 0.135276 -0.220919 0.357840 0.225148 0.111194 0.073221 0.100411 0.149709 0.273129 -0.063332 -0.083398 -0.104369 0.302668 -0.095501 -0.216391 -0.376803 0.110336 0.285591
kompak 0.005673 0.002951 0.081112 0.021485 -0.065458 -0.021881 -0.047113 0.084540 -0.185056 0.037945 -0.130458 -0.148626 0.056299 -0.004941 0.138142 0.068406 0.056176 -0.034544 -0.000999 0.029003 -0.164848 -0.061904 0.059823 -0.047144 -0.080439 0.059187 0.022257 -0.185604 0.038263 -0.045354 -0.172550 0.143703 -0.061329 0.127834 0.016351 -0.110991 0.028051 -0.078807 -0.115581 -0.014371 0.124753 -0.032140 -0.102366 -0.209124 -0.068729 0.217017 -0.018762 -0.140598 -0.009842 -0.022255 0.019688 -0.053669 0.030457 -0.030806 -0.138125 -0.065259 -0.144227 -0.014586 0.057884 -0.087153 -0.016074 0.020381 0.007744 0.205384 0.149703 -0.065398 -0.027165 0.044640 -0.030043 0.164726 0.129471 0.050905 0.130137 -0.098554 0.011830 0.005012 0.151413 -0.041517 0.103857 -0.017725 0.066104 -0.080426 0.070501 -0.032892 0.052826 -0.114902 0.015294 0.176103 0.196858 0.086959 0.004789 -0.027470 0.023541 0.089846 -0.133892 -0.205684 -0.037980 0.170377 -0.112944 -0.109446
moluska -0.023380 -0.050026 -0.038154 0.016877 -0.065528 -0.002168 -0.056989 0.006128 -0.022547 0.070596 -0.021220 0.009338 0.018014 0.029038 0.032557 -0.003360 0.028673 0.023153 0.016480 -0.025848 -0.054861 -0.022782 -0.001192 -0.054902 -0.027020 0.027860 -0.004272 -0.019168 -0.043957 -0.035826 -0.013195 -0.042248 -0.030053 0.029952 0.000271 -0.015000 0.039926 -0.034892 -0.048914 -0.132207 0.020601 -0.000639 0.019305 -0.051832 -0.023925 0.061233 -0.038182 -0.040010 -0.034512 0.023338 0.061639 -0.052247 0.063717 0.034114 -0.020862 -0.027574 -0.014392 -0.013257 0.000567 -0.053406 -0.010311 -0.001629 -0.030384 0.012127 0.003976 -0.010369 0.036373 -0.014180 0.008234 -0.011773 0.000464 -0.001614 -0.019958 -0.005291 -0.010162 0.018175 0.039708 0.063913 0.025815 -0.045136 -0.039886 -0.021663 -0.015183 -0.021758 -0.042105 -0.017740 -0.014381 0.028210 0.019301 0.013293 -0.018210 -0.005880 -0.033867 0.097354 -0.015402 -0.095928 -0.026111 0.025125 -0.051535 -0.039537
pasiran 0.180713 0.166721 0.116022 -0.123698 0.001854 -0.033164 -0.110405 0.037723 -0.237271 -0.111603 0.078834 0.069930 -0.064071 0.075236 0.162175 0.034002 -0.195618 -0.067050 -0.032984 0.129277 -0.065502 0.230747 -0.084589 0.014809 0.186114 -0.004086 -0.010481 -0.128493 0.100613 0.058632 -0.087594 0.205207 0.046646 0.149230 0.033749 -0.092577 -0.044385 0.083661 -0.011256 0.195871 0.001201 0.028017 -0.114933 -0.008645 0.025382 0.054683 -0.069629 -0.015293 0.099260 -0.157033 -0.096997 0.094665 -0.088003 -0.081638 -0.019819 -0.045148 -0.091010 -0.049151 0.022160 0.121762 0.050708 0.117453 0.058308 0.053693 0.030299 0.011902 0.004751 0.208245 -0.056996 0.340998 0.046444 0.105443 0.189949 -0.076152 0.042631 0.033864 -0.104792 -0.261431 0.063504 0.085699 0.038055 0.066073 0.007661 0.085268 0.031942 -0.229790 -0.016588 0.132962 0.146323 -0.135954 -0.045626 0.125747 0.040828 -0.236599 -0.185181 0.097495 -0.069109 0.099608 0.159164 0.046541
fosil -0.069946 -0.176585 -0.118842 0.087042 -0.062330 0.087325 0.098171 -0.064815 0.226182 0.085198 -0.145795 -0.002121 0.018330 -0.025765 -0.138831 -0.065768 0.109171 0.049543 -0.004789 -0.136761 0.087029 -0.256259 0.060024 -0.063424 -0.197202 0.062474 -0.064695 0.107030 -0.152576 -0.061999 0.102303 -0.173179 -0.041718 -0.148467 -0.019222 0.097731 0.082543 -0.125354 0.018080 -0.193995 -0.046752 -0.049461 0.106563 -0.032092 -0.001246 0.010027 -0.066692 -0.049640 -0.080992 0.171422 0.153581 -0.164323 0.153684 0.130268 -0.012344 0.020351 0.122614 0.135015 0.043829 -0.088999 0.070575 -0.025604 -0.046466 -0.094285 -0.090747 0.007407 0.013701 -0.167356 -0.012942 -0.291150 0.028736 -0.035683 -0.188091 0.002867 -0.123922 0.037112 0.032686 0.284865 0.019509 -0.113042 -0.076823 -0.001418 -0.111845 -0.199601 -0.121005 0.195646 0.032279 -0.203545 -0.131909 0.007198 0.100564 -0.148452 -0.122669 0.232133 0.052051 -0.061629 -0.079776 -0.148646 -0.168235 0.003987
fragmen 0.136002 0.143536 0.104718 -0.059419 -0.045177 -0.069941 -0.029088 0.032198 -0.197617 -0.219832 0.101225 0.200330 -0.073231 0.138089 0.006604 -0.024237 -0.143159 -0.099423 0.006426 0.001492 -0.003349 0.294423 -0.162235 0.125715 0.352583 0.021060 0.011917 0.086670 -0.030580 0.168664 -0.045736 0.049013 0.024409 0.014037 0.143942 0.044638 0.003146 0.238313 0.047571 0.384472 -0.097852 0.064413 -0.090746 0.112472 0.253058 -0.023475 0.022178 -0.087549 0.297938 -0.078885 -0.060427 0.174033 -0.189683 -0.059864 0.003173 0.089347 0.135306 -0.062946 -0.143658 0.048366 0.078349 -0.106941 0.087930 -0.034304 -0.039488 0.033465 0.094322 0.153379 -0.030323 0.079894 -0.022537 0.016282 0.101880 0.135280 -0.120406 -0.033054 -0.199753 -0.251059 -0.082306 0.055757 0.006719 0.027613 -0.041166 0.215853 0.015540 -0.211805 0.081685 -0.084982 0.106873 -0.079496 0.205203 0.093443 -0.120285 -0.241901 -0.097960 0.150650 -0.121113 -0.007155 0.220042 0.092902
sangat 0.101252 0.017724 0.065352 -0.004268 -0.014721 -0.000588 -0.107593 0.043890 -0.166980 0.004679 0.007325 -0.034671 0.040736 0.023576 0.129436 0.102806 -0.017209 -0.004987 0.012380 0.066597 -0.177290 0.042684 -0.080301 -0.061011 -0.002909 -0.044180 -0.011440 -0.137039 0.110696 -0.062464 -0.069722 0.097726 -0.026976 0.118544 0.082069 -0.114224 0.028138 -0.043711 -0.050287 -0.079636 0.024913 -0.098343 -0.097707 -0.087229 -0.062095 0.096055 0.007975 0.020963 -0.071592 -0.104413 -0.001659 -0.073290 0.027526 -0.052377 0.019481 -0.113923 -0.084483 0.001180 0.013202 -0.018204 0.057174 0.055080 -0.023072 0.159595 0.036735 -0.043198 -0.037196 0.057925 0.013175 0.327717 0.001840 0.156103 0.080914 -0.023160 0.148061 0.005522 0.040139 -0.098603 0.017385 0.051493 0.053442 -0.034043 0.024726 0.050016 -0.025836 -0.170744 -0.031623 0.106167 0.079660 -0.075276 -0.091643 0.147806 0.080567 -0.029259 -0.176795 0.007161 0.000795 0.136667 0.056460 -0.085037
hornblende 0.035718 0.076797 0.004731 0.049606 -0.113226 -0.056619 -0.107389 0.111122 -0.133869 0.028241 -0.046934 0.060074 0.048396 0.045497 0.016306 0.015650 0.028232 -0.055641 0.001666 0.001099 -0.230613 0.051704 -0.031779 0.016753 0.134807 -0.047475 0.073373 0.031046 -0.033130 0.010714 -0.078785 -0.021975 -0.062045 0.055081 0.105560 -0.042110 0.084910 0.066768 -0.037870 0.055750 -0.064498 -0.105861 -0.028905 -0.050974 0.138151 0.168018 0.013622 -0.149018 0.032037 -0.063906 0.072342 -0.064148 -0.022589 0.037254 -0.015380 -0.034704 0.072681 0.067260 -0.136441 -0.098412 0.088196 -0.168182 -0.078162 0.059217 -0.020875 -0.107024 0.075171 -0.032977 0.047032 0.044165 -0.010142 0.105500 0.031463 0.204723 -0.034564 -0.021259 0.007786 -0.030367 -0.038975 -0.046062 0.045204 -0.115037 -0.029165 0.191971 -0.098311 -0.130048 0.086188 -0.073304 0.017153 -0.048690 0.154687 -0.085073 -0.081631 -0.061548 -0.082814 -0.033962 -0.095101 0.085424 -0.008711 -0.059171
bergaris -0.031236 -0.004157 0.036389 -0.029909 0.023234 -0.039270 -0.068381 0.029835 -0.101596 -0.010891 -0.012601 -0.110783 0.044458 -0.034882 0.068309 0.021704 0.025981 -0.025758 -0.003012 0.004259 -0.031081 -0.029725 0.061367 0.027244 -0.056539 0.012536 0.014766 -0.080937 0.054827 -0.038030 -0.102380 0.105566 -0.039012 0.033737 0.008994 -0.032142 -0.010628 0.006851 -0.046283 0.001761 0.099670 0.052325 -0.027146 -0.110940 -0.073073 0.071023 0.053284 -0.059379 -0.004119 0.002489 -0.053087 0.078483 -0.051903 -0.067303 -0.068624 -0.037009 -0.081451 -0.070492 -0.001641 -0.024290 -0.073738 0.005521 0.004600 0.093488 0.103325 -0.026511 -0.023409 0.056054 0.026447 0.045977 0.074880 -0.023170 0.108046 -0.056769 -0.035773 -0.030472 0.063395 -0.069170 0.041242 0.003886 0.032738 -0.033752 0.084235 -0.011301 0.100137 -0.040797 0.003999 0.201255 0.128024 0.106278 0.002232 0.017988 0.027642 0.030182 -0.011632 -0.126361 -0.023110 0.042935 0.008626 -0.053080
butir -0.226188 -0.152680 -0.086629 0.061003 0.040733 0.083274 0.243240 -0.086995 0.385707 0.061851 -0.158366 -0.040807 -0.007770 -0.096190 -0.189434 -0.119531 0.020670 0.077924 0.031613 -0.116936 0.249330 -0.303897 0.145352 0.025464 -0.273925 0.077599 -0.061139 0.173568 -0.115022 -0.015681 0.090995 -0.089865 0.051271 -0.174729 -0.125804 0.182151 -0.147093 -0.048049 0.048219 0.046454 0.008040 0.110221 0.129545 0.044003 0.033702 -0.098739 -0.051984 0.080547 0.013016 0.195825 0.020965 0.062753 0.042943 0.086899 -0.049132 0.102531 0.083304 0.005703 0.176178 -0.013053 -0.163278 0.090640 0.003568 -0.107003 -0.070262 0.103353 -0.067711 -0.122923 -0.141561 -0.425898 -0.023392 -0.204935 -0.237764 -0.179102 -0.199175 -0.049075 0.082888 0.235659 0.004393 0.018175 0.006495 0.036921 0.087982 -0.339990 0.135083 0.324878 0.075436 -0.085632 -0.128791 0.104167 0.040825 -0.186990 0.027807 0.134042 0.172654 -0.062347 0.022345 -0.142208 -0.192083 0.087173
retakretak 0.014881 -0.026643 -0.090061 0.117432 -0.163290 -0.014664 -0.158647 0.144314 -0.060874 0.152887 -0.116759 -0.025630 0.154822 0.040444 0.033134 0.010569 0.137548 -0.050762 0.078204 0.038187 -0.295932 -0.065441 -0.064738 -0.151186 0.003617 -0.068180 0.022929 -0.035398 -0.014371 -0.033448 0.025309 -0.075722 -0.068120 0.120615 0.160229 -0.113617 0.131224 -0.101723 -0.060755 -0.134937 -0.031885 -0.218887 -0.013301 -0.043830 0.035254 0.132022 0.032897 -0.137644 -0.140337 -0.065059 0.178032 -0.263650 0.110171 0.132915 0.042407 -0.021767 0.039026 0.179456 -0.114298 -0.136953 0.165127 -0.206753 -0.052517 0.160215 -0.016271 -0.164543 0.081656 -0.098236 0.078734 0.130373 -0.038826 0.163072 -0.045760 0.144974 0.134094 0.074355 0.138884 0.120526 -0.038595 -0.099253 0.046735 -0.144947 -0.095742 0.131502 -0.117745 -0.051460 0.049378 -0.175056 -0.075506 -0.069180 0.015442 -0.074264 0.008602 0.115920 -0.134259 0.036676 0.054566 0.150189 -0.120252 -0.171227
abu 0.194913 0.202906 0.041839 0.009958 -0.095429 -0.060607 -0.165032 0.093201 -0.231102 -0.077343 0.194330 0.239360 -0.067001 0.196702 0.118237 0.041490 -0.103465 -0.078832 0.077776 0.068507 -0.181400 0.401433 -0.206786 -0.031789 0.381556 -0.063147 0.045962 0.028361 0.039198 0.094935 0.045320 0.004680 0.042264 0.144584 0.151312 -0.041527 0.084104 0.163140 -0.023320 0.176715 -0.184539 -0.122866 -0.091569 0.165210 0.210607 -0.000440 -0.008610 0.035569 0.099861 -0.142594 0.057443 0.021899 -0.073026 -0.020841 0.116737 0.003829 0.095680 0.044698 -0.174129 0.091920 0.215188 -0.097915 -0.000647 0.002590 -0.128634 -0.036668 0.147000 0.055045 0.074026 0.332641 -0.098669 0.251168 0.034526 0.226600 0.141991 0.024908 -0.147701 -0.182075 -0.106914 0.056820 0.028204 -0.023252 -0.102126 0.343902 -0.184986 -0.282237 -0.011417 -0.133270 -0.037702 -0.206297 -0.023038 0.148849 -0.048611 -0.285004 -0.131235 0.257742 0.028516 0.155440 0.190719 0.031641
sebagian -0.027532 -0.105530 0.034686 -0.007538 0.058229 0.028321 0.089199 -0.059634 0.056057 -0.021945 0.019608 -0.070939 -0.061505 -0.134995 -0.035955 0.015133 0.088228 0.052464 -0.058630 -0.018006 0.120520 -0.117942 0.095991 0.049911 -0.101805 -0.001605 -0.073383 -0.031937 -0.001658 -0.077902 -0.008328 -0.036289 -0.055243 -0.098214 -0.099900 0.043376 -0.013635 -0.121209 0.019734 -0.178883 0.075809 0.060183 0.024060 -0.062547 -0.128968 -0.039667 -0.005145 0.036207 -0.043102 0.039386 -0.067479 -0.066147 0.053415 -0.022301 0.009939 -0.074423 -0.050382 -0.028498 0.038819 -0.023052 -0.035441 0.099331 -0.063001 -0.037060 0.060756 0.018660 -0.100101 -0.086123 -0.016476 -0.011731 0.017452 -0.065918 0.049056 -0.074424 0.027267 -0.006514 -0.021339 0.013994 0.033131 0.009161 -0.052785 0.011994 0.048376 -0.078230 -0.015138 0.037802 -0.051748 0.085268 0.033316 0.065475 -0.050030 -0.008262 -0.010298 0.079565 0.093166 -0.056718 -0.005142 -0.054765 -0.000291 0.065613
kekuningan -0.025701 -0.062495 -0.023908 0.009645 0.006889 0.032504 0.042725 -0.037438 0.098550 0.032925 -0.034078 -0.029377 0.025663 -0.040741 -0.055610 -0.005112 0.028847 0.022441 0.021069 -0.000856 0.020119 -0.122835 0.020483 -0.015200 -0.071753 -0.010994 -0.056340 0.023321 -0.019141 -0.022986 0.063608 -0.038258 0.001207 -0.057527 -0.031588 0.006653 0.015065 -0.048372 0.044301 -0.097324 0.012349 0.001751 0.056087 -0.016482 -0.037747 -0.084597 0.015506 0.033921 -0.074117 -0.011117 -0.003890 -0.061854 0.034186 0.027217 0.023728 0.008353 0.001599 0.044752 0.019751 0.002787 -0.002881 0.042440 -0.030902 -0.003497 -0.050137 0.000176 -0.050089 -0.045297 -0.008568 -0.071898 -0.010637 -0.014271 -0.051036 -0.032894 0.042459 0.020179 0.040595 0.050549 -0.004750 -0.028315 -0.003477 0.015306 0.001632 -0.068794 -0.012731 0.065743 -0.001998 -0.065498 -0.048321 -0.000680 -0.037510 -0.047767 0.050401 0.063724 0.040627 0.034675 0.039756 -0.049317 -0.036555 0.003372
sedang -0.010764 -0.035484 0.021512 0.040021 -0.026758 0.084589 0.130156 -0.037800 0.045326 -0.015011 -0.156676 -0.144922 0.071418 -0.075425 -0.066157 -0.012896 0.059897 0.024728 -0.003859 0.041028 0.034652 -0.202150 0.027335 -0.038609 -0.227539 0.017748 -0.075734 -0.108531 0.003342 -0.052813 0.040364 -0.039716 0.011818 -0.014116 -0.007159 0.034044 0.041827 -0.133528 0.063110 -0.018742 0.030832 -0.047691 -0.021945 -0.072337 -0.063973 0.002088 -0.028418 -0.025209 -0.124947 -0.043226 -0.019637 -0.106799 0.047753 0.019730 -0.023195 0.085377 -0.001744 0.064798 0.025037 -0.066502 0.089186 0.064184 -0.011958 0.138999 0.014851 0.021050 -0.109148 -0.045438 0.038218 0.016737 0.040125 -0.019632 -0.001046 -0.084943 0.097357 0.014517 0.055047 0.016208 -0.013769 -0.000255 0.063925 0.039135 -0.031242 -0.135436 0.078860 0.110357 0.002327 -0.049021 -0.045645 0.078550 -0.004046 -0.050453 0.063133 0.067906 -0.060039 0.059436 0.060106 -0.018064 -0.057522 0.027060
porfiritik -0.109488 -0.105201 -0.110600 0.058840 0.012813 0.047441 0.144208 -0.052801 0.163343 0.091076 -0.154955 -0.038409 0.009072 -0.074544 -0.127816 -0.047590 0.091631 0.038109 0.021096 -0.083110 0.087205 -0.205934 0.055625 -0.023829 -0.184908 0.041227 -0.019013 0.069306 -0.060320 -0.020004 0.048605 -0.086941 0.016973 -0.130990 -0.049987 0.087403 0.029866 -0.144116 0.005995 -0.113475 -0.008382 0.000335 0.119985 -0.045751 -0.001899 -0.047025 -0.025444 0.018388 -0.040923 0.082099 0.105101 -0.107938 0.099542 0.070828 -0.000804 0.013034 0.015626 0.075649 0.066354 -0.074366 -0.005369 -0.041673 -0.040810 -0.043128 -0.009293 0.022884 -0.048480 -0.135825 -0.052834 -0.207411 -0.015851 -0.075626 -0.168413 -0.037376 -0.039332 -0.002891 0.105254 0.194146 -0.003539 -0.118171 -0.044552 -0.015642 0.025797 -0.154794 -0.031325 0.206821 0.022930 -0.133794 -0.181934 0.060790 0.013046 -0.118590 0.001411 0.233444 0.104255 -0.009047 0.002517 -0.064090 -0.122957 -0.011921
sedimen -0.050742 -0.036923 0.179679 -0.115476 0.226235 -0.090786 0.491562 -0.208532 0.177611 -0.315998 -0.018078 0.177735 -0.254390 -0.045491 -0.243354 -0.025392 -0.174372 -0.001449 -0.189213 -0.033519 0.465039 0.073395 0.099381 0.390514 0.196062 0.129362 -0.063892 0.280733 -0.123128 0.222386 -0.081328 0.069263 0.025483 -0.349177 -0.172299 0.161886 -0.194573 0.254255 0.161716 0.507973 0.089154 0.321901 0.084499 0.143572 0.140397 -0.188373 0.033144 0.003846 0.473374 0.176801 -0.250590 0.404657 -0.136159 -0.053738 -0.091457 0.084012 0.077106 -0.183400 0.134318 0.034645 -0.263611 0.061841 0.206267 -0.349067 0.047429 0.216052 -0.035255 0.174565 -0.300416 -0.473176 0.137233 -0.381543 -0.035408 -0.131170 -0.503639 -0.073750 -0.207722 -0.129521 0.058212 0.105428 -0.102394 0.213973 0.062830 -0.125396 0.285061 0.157147 0.124171 -0.013498 0.106763 0.135061 0.347869 -0.088958 -0.163368 -0.085826 0.276475 -0.071410 -0.211563 -0.390300 0.134271 0.301761
pekat 0.045083 0.075221 -0.068740 0.010932 0.012165 -0.131029 -0.184845 0.117143 -0.104994 0.034304 0.106420 0.024281 0.085262 0.087855 0.056447 0.019886 -0.046760 -0.027930 0.003863 0.082755 -0.205480 0.138258 -0.052833 -0.060675 0.126749 -0.083481 0.160429 0.047951 0.099080 -0.017153 -0.028959 0.046242 -0.049769 0.130743 0.091224 -0.085425 0.002984 0.082307 0.012696 0.043220 -0.058654 -0.063769 0.014164 0.035128 0.062912 0.000534 0.101853 0.030815 -0.013642 -0.174720 0.028210 0.013019 -0.045346 -0.035042 0.074858 0.009155 0.047984 0.019747 -0.155625 -0.039681 0.011279 -0.163620 -0.007698 0.045717 0.000976 -0.092883 0.054690 0.061868 0.089128 0.088537 -0.073941 0.140105 0.065656 0.233245 0.081267 -0.051705 -0.004142 -0.095672 -0.056161 0.013428 0.058973 -0.065610 0.025080 0.219459 -0.042438 -0.101985 0.023957 0.041470 -0.053928 -0.041618 0.019130 0.086722 0.071211 -0.087741 0.011698 0.057213 -0.000046 0.086610 0.140456 -0.104835
lensa 0.026906 0.100588 0.000332 -0.019090 0.003279 -0.054755 -0.108689 0.088206 -0.088114 -0.011966 0.046949 0.028110 0.034056 0.078133 0.034789 0.024044 -0.063776 -0.047379 0.018798 0.100280 -0.070122 0.140095 -0.067608 -0.042993 0.071528 -0.079586 0.096373 0.027527 0.088699 0.035849 0.014773 0.031821 0.023799 0.105147 0.097324 -0.046883 -0.030196 0.112587 0.007083 0.118605 -0.053117 -0.050032 -0.003615 0.095292 0.078442 -0.013329 0.073649 0.026046 0.029608 -0.081977 0.002574 0.054587 -0.056452 -0.045656 0.040798 0.065599 0.026516 -0.005709 -0.102494 0.019208 0.058728 -0.061942 0.052343 0.090359 -0.003195 -0.034748 0.030807 0.092685 0.006368 0.091873 -0.080814 0.114156 0.042885 0.072133 0.081718 -0.014992 -0.043794 -0.079765 -0.069580 0.054181 0.052603 0.016321 -0.012268 0.158386 0.043628 -0.066738 0.020624 -0.027834 -0.028958 -0.060328 0.031400 0.076037 0.077030 -0.098885 -0.076597 0.115512 0.059138 0.063426 0.098574 -0.050066
penokris -0.001291 -0.040490 -0.010487 0.048600 -0.083932 0.010117 -0.028905 0.036172 -0.008398 0.051506 -0.080813 -0.021795 0.050177 -0.039725 -0.019451 -0.011111 0.056057 0.010357 -0.023313 -0.021170 -0.090409 -0.092442 0.041006 -0.000379 -0.043881 -0.021634 -0.016161 -0.007557 -0.063238 -0.037009 -0.028104 -0.061105 -0.066885 0.008417 0.003782 -0.014621 0.053824 -0.018837 -0.000212 -0.103935 0.022702 -0.042617 0.010798 -0.068714 -0.012271 0.106349 -0.029583 -0.099872 -0.067720 0.008502 0.033084 -0.107255 0.053858 0.061337 -0.033623 -0.040786 0.023819 0.045054 -0.017288 -0.086879 0.012436 -0.013272 -0.065696 0.026934 -0.012821 -0.071244 0.000079 -0.033455 0.022141 -0.025994 0.028926 0.008211 0.014454 0.031731 -0.028764 0.023957 0.032660 0.050626 0.016461 -0.024736 0.005675 -0.054065 -0.041396 -0.009059 -0.035061 -0.006352 0.034179 -0.011005 0.051882 -0.011236 0.066118 -0.092072 -0.048427 0.031918 -0.038444 -0.082595 -0.069737 -0.001221 -0.094566 -0.036433
seperti -0.067097 -0.117811 -0.101968 0.037909 -0.024936 0.053139 0.093786 -0.021506 0.126745 0.082721 -0.067101 -0.047070 0.008987 -0.039758 -0.066536 -0.035441 0.056940 0.056155 0.017383 -0.021316 0.026090 -0.152456 -0.014701 -0.064289 -0.174799 0.037401 -0.036484 0.022987 -0.035236 -0.040318 0.025202 -0.075136 0.018599 -0.066421 -0.020766 0.050236 0.020004 -0.106518 0.020064 -0.133209 0.006482 -0.022360 0.070120 0.004506 -0.040133 0.025872 -0.021524 0.029755 -0.059347 0.078707 0.079437 -0.111416 0.127106 0.092801 0.042869 0.023352 0.006678 0.072342 0.024625 -0.053459 0.013455 0.009082 -0.026826 0.011751 -0.016772 -0.003137 -0.020594 -0.094438 -0.024326 -0.096076 -0.042637 -0.023698 -0.135371 -0.061609 0.025601 0.008671 0.051582 0.162691 -0.013127 -0.058475 -0.039092 0.022124 -0.006625 -0.136153 -0.019649 0.161443 0.010017 -0.114996 -0.117576 -0.008554 -0.024697 -0.051741 0.002440 0.154533 0.030746 0.009355 0.036631 -0.017922 -0.083358 -0.031419
kemerahan 0.111271 0.140350 0.013282 0.023595 -0.072156 -0.058361 -0.169210 0.091698 -0.191128 -0.042148 0.126514 0.124281 -0.007237 0.113842 0.080693 0.023258 -0.043076 -0.067222 0.061326 0.002738 -0.173140 0.253005 -0.145352 -0.014180 0.238848 -0.030819 0.073933 -0.016407 0.030680 0.067773 0.004831 0.005897 -0.001530 0.106595 0.127318 -0.020324 0.068428 0.088753 -0.037275 0.104564 -0.142004 -0.095151 -0.065321 0.075511 0.150334 0.008539 0.028906 0.005420 0.063533 -0.125016 0.065480 -0.013118 -0.093780 -0.028347 0.056837 0.027539 0.068819 0.039974 -0.152871 0.034486 0.158176 -0.133018 -0.019004 0.013532 -0.063703 -0.026602 0.106436 0.024792 0.084991 0.190569 -0.082975 0.174221 0.063940 0.205363 0.101921 -0.003573 -0.075480 -0.127016 -0.077909 -0.001954 0.001407 -0.048306 -0.041399 0.261809 -0.130733 -0.217957 0.001277 -0.061242 -0.035339 -0.116814 0.003347 0.110607 -0.039110 -0.156230 -0.079126 0.158082 0.004277 0.119423 0.128898 -0.015347
lapilli 0.041584 0.076087 0.032557 -0.047283 0.013247 -0.081366 -0.148022 0.070513 -0.173708 -0.012927 0.088660 -0.023218 0.033584 0.033748 0.121795 0.057732 -0.035513 -0.024400 -0.001053 0.067024 -0.147919 0.106506 -0.006527 -0.013874 0.097695 -0.026182 0.100640 -0.082804 0.083296 -0.033762 -0.095213 0.132363 -0.021739 0.112583 0.044081 -0.077300 -0.012072 0.040180 -0.039576 0.054294 0.021731 -0.002864 -0.057127 -0.058366 -0.022882 0.062955 0.052100 0.005933 0.016820 -0.131857 -0.043345 0.068851 -0.062855 -0.073639 0.003824 -0.043738 -0.059038 -0.047808 -0.050734 0.025234 -0.018570 -0.016869 0.001306 0.088522 0.056451 -0.031278 0.004529 0.091216 0.043735 0.155080 -0.000509 0.082662 0.142952 0.069886 0.064257 -0.038267 -0.003083 -0.143791 0.006350 0.029766 0.052800 -0.043627 0.057837 0.120311 -0.004367 -0.151478 -0.020806 0.164359 0.089638 0.007833 -0.031624 0.098503 0.057010 -0.090416 -0.034699 -0.029232 -0.008354 0.099122 0.106196 -0.072150
hancur 0.075732 0.010513 0.072186 -0.029303 0.014359 0.003197 -0.093763 0.021956 -0.142176 -0.036453 0.108092 -0.053697 -0.024625 -0.050212 0.084784 0.054596 0.078754 -0.007015 -0.037495 0.023704 -0.041878 0.053463 0.013095 -0.000343 0.038454 -0.075953 -0.009751 -0.135205 0.074001 -0.074815 -0.035686 0.023781 -0.067000 0.054765 0.011125 -0.044854 0.040623 -0.077935 -0.031544 -0.155257 0.029073 -0.018452 -0.075939 -0.053114 -0.110428 0.025864 0.004163 0.006995 -0.085977 -0.094133 -0.061110 -0.100105 -0.001712 -0.060386 0.050096 -0.100877 -0.068511 -0.010757 -0.064914 0.008821 0.065911 0.055036 -0.086940 0.070592 0.061001 -0.037602 -0.036303 -0.033464 0.071526 0.234948 -0.021134 0.085358 0.158261 0.029495 0.155260 0.008813 -0.052170 -0.088850 -0.000366 0.034320 -0.012967 -0.033951 0.010842 0.120734 -0.093067 -0.146945 -0.063494 0.139891 0.072811 -0.014729 -0.093010 0.091913 0.007810 -0.045058 -0.028147 0.014058 0.022725 0.082892 0.074726 0.003003
berukuran -0.223940 -0.172145 -0.078925 0.040393 0.066333 0.081105 0.257810 -0.101840 0.386724 0.032534 -0.144693 -0.015470 -0.020346 -0.094640 -0.181875 -0.114428 0.001819 0.082839 0.011847 -0.142938 0.269793 -0.275393 0.156601 0.059492 -0.244300 0.115384 -0.071307 0.190684 -0.132775 0.014695 0.074670 -0.062800 0.066899 -0.209679 -0.170496 0.174919 -0.153635 0.001242 0.019415 0.051399 0.047737 0.151645 0.142238 0.034449 0.017054 -0.091070 -0.053124 0.093730 0.052193 0.255946 0.001573 0.116547 0.034903 0.058496 -0.074204 0.062554 0.038905 -0.035550 0.204041 0.014945 -0.226790 0.105700 0.033917 -0.172755 -0.055716 0.128762 -0.043057 -0.095432 -0.134522 -0.471039 0.027770 -0.245127 -0.220329 -0.182499 -0.262334 -0.048129 0.082388 0.233497 0.041755 0.013824 -0.047210 0.046673 0.097649 -0.368586 0.145785 0.330943 0.044937 -0.042347 -0.079634 0.143018 0.051103 -0.168767 -0.013216 0.183525 0.205365 -0.138374 -0.018783 -0.176425 -0.212954 0.078350
dari -0.051841 -0.093663 0.028993 0.010861 0.062963 0.059015 0.227190 -0.133867 0.193926 -0.082325 -0.087736 0.003097 -0.097080 -0.099083 -0.146352 -0.031487 0.015478 0.031552 -0.083111 -0.054872 0.238774 -0.141158 0.076617 0.126543 -0.059657 0.069675 -0.098849 0.078272 -0.110843 0.066277 0.029234 -0.062442 -0.011581 -0.176362 -0.115403 0.063384 -0.040203 -0.027588 0.070197 0.008245 0.060062 0.107484 0.071436 -0.001180 -0.024628 -0.104565 -0.020108 -0.018135 0.086352 0.129029 -0.041608 0.019054 0.010030 0.051544 -0.069721 0.040873 0.019047 0.035130 0.116619 0.012639 -0.092697 0.067955 0.059194 -0.152494 -0.003115 0.068169 -0.059649 -0.024787 -0.099591 -0.292067 0.068604 -0.203170 -0.077021 -0.131029 -0.176908 0.044062 -0.019713 0.095674 0.027557 -0.024432 -0.092671 0.106041 -0.023575 -0.207555 0.067313 0.150920 0.010458 -0.104263 -0.017233 0.059748 0.098289 -0.122607 -0.080593 0.123265 0.114890 -0.057013 -0.051954 -0.205382 -0.083342 0.106406
lapisan -0.033217 -0.069822 0.029180 -0.051288 0.073019 0.047856 0.195886 -0.098614 0.166729 -0.038683 -0.068325 -0.021795 -0.068783 -0.075556 -0.076961 -0.023213 -0.060342 0.035179 -0.073344 0.003821 0.199846 -0.104896 0.068583 0.080604 -0.129557 0.063644 -0.095606 0.036432 -0.017193 0.019619 0.030481 0.009490 0.014777 -0.113581 -0.152603 0.042799 -0.094785 -0.008638 0.059984 0.005087 0.083163 0.113438 0.072813 -0.013319 -0.085664 -0.087085 -0.061801 0.056433 0.026664 0.104389 -0.076403 0.054955 0.053488 0.003409 -0.054801 -0.003976 -0.051485 -0.041903 0.150314 0.041104 -0.124651 0.161060 0.043867 -0.116815 0.020048 0.091677 -0.083226 0.017132 -0.083985 -0.158613 0.070437 -0.129349 -0.048661 -0.186368 -0.094998 0.021666 -0.016986 0.032496 0.073294 0.040393 -0.065491 0.118891 0.008840 -0.217984 0.112223 0.176218 -0.005545 0.033745 -0.002383 0.028503 0.000563 -0.056127 0.010573 0.041087 0.082105 -0.048690 -0.031502 -0.143383 -0.046303 0.092262
besar 0.047358 0.059512 0.027742 -0.026317 0.012017 -0.046673 -0.058588 0.040694 -0.097113 -0.059126 0.093589 0.029655 -0.048159 0.023353 0.038652 0.035792 0.005900 -0.018966 -0.018584 0.032500 -0.023216 0.131989 -0.057332 0.037314 0.132326 -0.053666 0.028616 0.011546 0.035485 0.020709 -0.030795 0.011654 -0.021639 0.004467 0.051864 -0.017741 0.012224 0.042453 0.028594 0.028563 -0.010913 0.010355 -0.013518 0.017867 0.037314 0.003204 0.057098 -0.005834 0.070388 -0.044786 -0.043450 0.024538 -0.049985 -0.021719 0.043382 -0.013492 0.025746 -0.030019 -0.095169 -0.001673 0.034424 -0.058068 0.000636 0.006525 0.036928 -0.042138 0.022209 0.004507 0.017898 0.093057 -0.048315 0.035151 0.064141 0.081265 0.040805 -0.025780 -0.080402 -0.084404 -0.050650 0.024068 0.003130 -0.008981 -0.006550 0.148088 -0.048159 -0.107531 -0.005076 -0.000032 0.029940 -0.044899 0.029394 0.056936 -0.017222 -0.089054 -0.027400 0.062757 0.015486 0.011658 0.131810 0.024643
mineral -0.165087 -0.277349 -0.134922 0.120715 -0.008968 0.157242 0.285487 -0.141481 0.455995 0.141552 -0.296067 -0.102507 0.032599 -0.162618 -0.258115 -0.090023 0.173882 0.137083 0.030241 -0.161590 0.204043 -0.501036 0.138186 -0.037128 -0.407956 0.091861 -0.152226 0.126374 -0.216720 -0.056715 0.154917 -0.212368 0.040797 -0.251597 -0.172202 0.144071 0.029439 -0.227120 0.053052 -0.269075 0.048673 0.057473 0.212545 -0.049677 -0.073637 -0.071544 -0.080072 0.039933 -0.171225 0.229771 0.105427 -0.177254 0.197459 0.198755 -0.027741 0.038742 0.071954 0.151529 0.200890 -0.099780 -0.079783 0.058526 -0.091288 -0.128249 -0.088677 0.077027 -0.105397 -0.239026 -0.069860 -0.491634 0.040411 -0.220494 -0.300930 -0.165727 -0.087671 0.071117 0.165391 0.432913 0.035939 -0.144614 -0.128202 0.024738 -0.049964 -0.411381 -0.010056 0.424444 -0.021041 -0.258290 -0.196757 0.104591 0.006408 -0.286515 -0.021114 0.388062 0.164595 -0.105829 0.008929 -0.228534 -0.322557 0.012750
dasite 0.106180 0.104116 0.063038 -0.048688 -0.000682 -0.051593 -0.076823 0.029502 -0.174627 -0.061723 0.082688 0.035262 -0.028722 0.055392 0.082016 0.049062 -0.038984 -0.050665 -0.016407 0.074026 -0.090544 0.151598 -0.064080 0.011484 0.148977 -0.057195 0.014682 -0.055717 0.080156 0.018435 -0.058964 0.067330 -0.032897 0.074845 0.068284 -0.053534 0.019028 0.040116 -0.010594 0.069459 -0.010934 -0.022530 -0.070963 0.007928 0.027354 0.018435 0.016914 -0.016447 0.031412 -0.118898 -0.040795 0.011826 -0.055128 -0.057761 0.032451 -0.026859 -0.029058 -0.019676 -0.068775 0.018935 0.063322 -0.025549 0.006234 0.056696 0.020676 -0.029200 0.026854 0.081927 0.018868 0.214851 -0.004593 0.098667 0.103674 0.059630 0.075461 0.000979 -0.054812 -0.149288 -0.010699 0.030432 0.028871 -0.012504 -0.012565 0.150043 -0.038504 -0.153716 0.005253 0.066452 0.061564 -0.054673 -0.015877 0.088700 0.017603 -0.136635 -0.069008 0.064884 -0.010302 0.064174 0.124886 0.005988
di -0.134544 -0.158830 -0.042081 0.071613 0.005802 0.099769 0.265722 -0.124877 0.285130 0.037224 -0.207033 -0.072431 -0.024415 -0.128687 -0.167731 -0.057406 0.114477 0.064994 -0.032530 -0.117385 0.194314 -0.296754 0.124153 0.034691 -0.285403 0.081480 -0.102404 0.049671 -0.133774 -0.011878 0.057426 -0.114215 -0.021651 -0.193242 -0.145885 0.091583 -0.004284 -0.138536 0.010146 -0.147123 0.042664 0.022811 0.103665 -0.046849 -0.054093 -0.043353 -0.067872 0.032625 -0.063355 0.225130 0.031816 -0.104614 0.117038 0.098117 -0.059683 0.014236 0.007823 0.062559 0.156343 -0.059530 -0.063205 0.071008 -0.037216 -0.115521 -0.011456 0.084316 -0.082278 -0.153746 -0.061479 -0.332236 0.058959 -0.177070 -0.186023 -0.146837 -0.121020 0.017570 0.090159 0.231972 0.044711 -0.084793 -0.094177 0.040223 -0.021269 -0.281837 0.021611 0.247673 -0.004789 -0.126846 -0.089297 0.124282 0.046890 -0.160457 -0.031629 0.232932 0.113196 -0.099895 -0.003915 -0.163323 -0.230170 0.057222
segar 0.049972 0.088092 -0.071039 -0.011939 -0.036603 -0.070089 -0.261319 0.134397 -0.129596 0.066210 0.189868 0.053861 0.076398 0.114517 0.132700 0.032496 -0.012792 -0.030090 0.070753 0.037262 -0.242217 0.206062 -0.080316 -0.117059 0.175196 -0.079353 0.141364 -0.011764 0.057508 -0.024762 -0.002878 0.019569 -0.018086 0.161592 0.094114 -0.106349 0.041067 0.047306 -0.070568 -0.060855 -0.096321 -0.099761 -0.022599 0.045182 0.019085 -0.003956 0.078959 0.041877 -0.056847 -0.114302 0.087758 0.002701 -0.054058 -0.046532 0.087507 -0.037175 0.035156 0.004984 -0.173548 0.037394 0.080380 -0.145947 -0.066989 0.052674 -0.008434 -0.098693 0.122781 0.002279 0.151073 0.196156 -0.100555 0.178532 0.055168 0.228575 0.131162 -0.009472 0.030501 -0.048029 -0.061861 -0.037439 0.027245 -0.090328 -0.009339 0.271917 -0.134774 -0.154758 -0.059649 0.016809 -0.049882 -0.050817 -0.097682 0.119826 0.014770 -0.066761 -0.031849 0.056753 0.059558 0.135572 0.090485 -0.122240
terdapat -0.081172 -0.130258 -0.057385 0.011195 0.018733 0.052608 0.060298 -0.019946 0.138871 0.069809 -0.046486 -0.101679 0.007805 -0.069674 -0.039225 -0.024950 0.059474 0.069442 -0.006810 -0.032392 0.078417 -0.172345 0.065214 -0.034922 -0.193331 0.047399 -0.044785 0.006829 -0.006662 -0.061964 0.050259 -0.045432 -0.014449 -0.078671 -0.084155 0.034607 -0.033060 -0.109904 0.033062 -0.166912 0.055418 0.039134 0.074691 -0.052450 -0.110107 -0.042788 -0.013653 0.050079 -0.083503 0.080532 0.033366 -0.067207 0.093841 0.031833 -0.008124 0.008282 -0.022249 0.005837 0.061704 -0.020075 -0.049735 0.058450 -0.023181 -0.031069 0.031209 0.022146 -0.063860 -0.085987 -0.007557 -0.113413 0.005397 -0.060657 -0.062329 -0.081247 0.019452 0.007237 0.049167 0.108335 0.032542 -0.032300 -0.035823 0.009970 0.020236 -0.165835 0.020543 0.138291 -0.049618 0.029991 -0.046536 0.054735 -0.058404 -0.034045 0.028903 0.138740 0.071504 -0.047675 0.040039 -0.053866 -0.058877 -0.014192
litik 0.026180 0.043333 0.032836 -0.010442 -0.003617 -0.012038 -0.011609 0.009294 -0.046899 -0.024702 0.013280 0.018384 -0.016422 0.007491 0.025440 -0.001482 -0.020863 -0.017019 0.000731 0.030649 -0.014380 0.048159 -0.014816 0.007792 0.047254 -0.010248 0.000778 -0.029626 0.013737 0.010504 -0.010254 0.008700 -0.007019 0.022385 0.009039 -0.022321 0.007566 0.006704 -0.008291 0.016671 -0.023680 -0.016262 -0.027374 0.014999 0.011233 0.000387 -0.003197 0.004396 0.006657 -0.026914 -0.010785 -0.008739 -0.016793 -0.011564 0.009560 -0.013821 -0.001546 -0.005467 -0.012413 0.013350 0.027294 -0.006326 -0.009182 0.005044 -0.006195 0.000486 0.008752 0.017520 0.007805 0.071775 0.010508 0.043134 0.027177 -0.006325 0.035411 0.021512 -0.029947 -0.037384 -0.004261 0.015743 0.007453 -0.008552 -0.014174 0.033306 -0.011972 -0.042908 0.002913 0.014341 0.013460 -0.017474 -0.024168 0.027064 0.010188 -0.056517 -0.030337 0.016810 0.005005 0.013201 0.017871 0.014831
massif -0.032234 -0.066832 -0.051242 0.029037 -0.005958 0.040930 0.021430 -0.033524 0.092992 0.050104 -0.024136 0.039780 -0.025014 -0.004184 -0.033675 -0.013378 0.012008 0.013631 0.013659 -0.059612 0.037543 -0.049425 0.005485 0.001347 -0.036614 0.019493 -0.024011 0.035107 -0.049620 0.015424 0.024808 -0.043356 0.000539 -0.048999 -0.031895 0.036820 0.000582 -0.024186 -0.004252 -0.067182 -0.009665 0.001041 0.041960 0.026700 -0.015318 0.013672 -0.034715 -0.015150 0.004895 0.068142 0.061566 -0.038907 0.062378 0.055965 0.011414 -0.028768 0.014059 0.023380 0.042199 -0.003333 -0.018317 0.018354 -0.012028 -0.062186 -0.020375 -0.005552 0.025763 -0.066955 -0.050216 -0.101838 -0.003978 -0.043238 -0.070374 -0.021639 -0.055518 0.026325 0.027242 0.114776 0.012348 -0.042202 -0.048351 -0.013194 -0.005920 -0.067329 -0.031745 0.060850 -0.016224 -0.064770 -0.021348 -0.019882 0.006390 -0.051799 -0.046930 0.090649 0.029177 -0.040551 -0.018135 -0.038768 -0.072830 0.000629
serpihan -0.107211 -0.147365 -0.007513 0.025570 -0.000596 0.102795 0.167502 -0.113772 0.195169 0.026901 -0.170118 -0.082014 -0.000271 -0.125867 -0.129041 -0.056580 0.070134 0.057128 -0.049882 -0.088324 0.180977 -0.302379 0.121628 0.041616 -0.219845 0.064671 -0.113316 0.020189 -0.118657 -0.028565 0.030617 -0.096265 -0.023572 -0.126787 -0.115436 0.069990 0.002891 -0.113510 0.045429 -0.118575 0.086323 0.083947 0.066367 -0.088409 -0.105996 -0.015716 -0.065777 -0.077392 -0.053954 0.160080 -0.018188 -0.079548 0.065630 0.068075 -0.107034 0.025219 -0.014886 0.037209 0.140772 -0.052346 -0.070853 0.093048 -0.010792 -0.046343 0.001315 0.046230 -0.085792 -0.069555 -0.070616 -0.277954 0.091091 -0.180898 -0.062346 -0.166453 -0.145772 0.033278 0.047384 0.181960 0.063378 -0.048188 -0.034891 0.052308 -0.005332 -0.282094 0.070434 0.199487 0.026060 -0.023101 0.025887 0.105449 0.067558 -0.160964 -0.036496 0.165679 0.056496 -0.143228 -0.060655 -0.142622 -0.184880 0.035193
perlapisan -0.160357 -0.096189 -0.147550 0.075398 -0.054065 0.053993 0.085378 -0.015098 0.267009 0.115454 -0.133449 -0.006295 0.100768 -0.038280 -0.150347 -0.103384 0.116453 0.053976 0.056451 -0.123729 0.028794 -0.236047 0.040071 -0.013779 -0.161502 0.026884 -0.007553 0.137133 -0.131039 -0.016074 0.090798 -0.168048 0.026594 -0.140905 0.027167 0.107169 0.009118 -0.045044 0.038513 -0.013083 -0.056191 -0.031958 0.101440 0.023293 0.081951 -0.014229 0.035099 -0.046027 -0.045244 0.128788 0.117097 -0.038883 0.034075 0.113946 0.019864 0.108383 0.120293 0.079260 -0.005786 -0.076335 -0.029736 -0.152034 -0.044288 -0.047378 -0.070183 0.003781 0.030281 -0.188019 0.033797 -0.361865 -0.058264 -0.124897 -0.223426 0.073533 -0.066179 -0.025569 0.123395 0.251687 -0.071077 -0.088618 0.012073 -0.067700 -0.038430 -0.117086 -0.000124 0.238828 0.054319 -0.223668 -0.181457 0.099042 0.068245 -0.161119 -0.054135 0.187203 0.117063 -0.045431 0.055824 -0.108370 -0.165991 -0.048569
silika -0.153292 -0.273081 -0.100638 0.080623 0.035169 0.134571 0.271220 -0.144616 0.384081 0.107745 -0.241523 -0.142085 0.002524 -0.182011 -0.212935 -0.057739 0.155706 0.137371 0.001737 -0.122757 0.213362 -0.461030 0.156975 -0.021370 -0.399601 0.085301 -0.144076 0.078116 -0.158155 -0.075617 0.101843 -0.155951 0.004187 -0.234816 -0.188197 0.119624 0.009188 -0.233531 0.046883 -0.297412 0.095107 0.075139 0.181073 -0.075484 -0.135396 -0.065813 -0.067073 0.050990 -0.153807 0.210953 0.049208 -0.150003 0.190428 0.146753 -0.037999 -0.005149 0.005198 0.085347 0.209724 -0.091740 -0.118627 0.099400 -0.070723 -0.109318 -0.025304 0.064685 -0.131377 -0.196392 -0.077766 -0.398856 0.059502 -0.212406 -0.222826 -0.213334 -0.071186 0.054904 0.148517 0.361489 0.060284 -0.112714 -0.112192 0.042440 -0.003284 -0.402929 0.023727 0.374128 -0.044270 -0.137815 -0.123159 0.122537 -0.028466 -0.220942 -0.000329 0.356829 0.160059 -0.143382 0.014570 -0.212224 -0.267794 0.025008
tekstur -0.073260 -0.084478 -0.109297 0.068500 -0.014701 0.071684 0.070704 -0.044783 0.170387 0.086779 -0.063968 -0.011535 0.007285 -0.033612 -0.087137 -0.048027 0.058607 0.064462 0.031815 -0.021800 0.047865 -0.145094 0.032161 -0.069969 -0.112226 -0.002419 -0.065898 0.073564 -0.049461 -0.023053 0.083575 -0.126818 0.020391 -0.094041 -0.026715 0.058867 0.020106 -0.072837 0.020095 -0.144320 -0.031385 -0.013918 0.089015 0.022423 -0.002533 -0.063626 -0.010555 0.039582 -0.096814 0.074142 0.084053 -0.103058 0.085906 0.074035 0.044151 0.023632 0.054823 0.075686 0.037599 -0.029359 0.002057 0.012236 -0.039390 -0.010503 -0.070849 0.006476 -0.021294 -0.125906 -0.011698 -0.136886 -0.018617 -0.034492 -0.157463 -0.026409 -0.019970 0.020089 0.073936 0.180674 -0.018793 -0.061057 -0.025096 0.000708 -0.036405 -0.097121 -0.042509 0.155385 0.001700 -0.164270 -0.143381 0.014967 -0.019646 -0.102546 0.016831 0.151526 0.062062 0.001943 0.032877 -0.061782 -0.098835 -0.008867
tufa -0.049808 -0.035451 0.005007 0.001646 -0.023182 0.014599 -0.030791 0.036198 -0.052449 0.032529 -0.027415 -0.076393 0.020306 -0.027929 0.072123 0.008577 0.039189 0.000419 0.019034 -0.047098 -0.038314 -0.037015 0.047057 -0.014909 -0.061719 0.055476 0.014008 -0.068438 -0.015588 -0.037208 -0.061503 0.051535 -0.015885 0.028622 -0.028670 -0.026994 0.013035 -0.027022 -0.072830 -0.055391 0.052164 0.010544 -0.029694 -0.103066 -0.065756 0.104379 -0.013723 -0.039457 -0.036816 0.065659 0.022835 0.002177 0.019970 -0.009889 -0.067126 -0.039647 -0.072922 -0.025513 0.041930 0.017387 -0.051247 0.036448 -0.013422 0.056084 0.070129 -0.013575 0.003798 -0.016429 0.037222 0.000970 0.054133 -0.015701 0.024855 -0.053439 -0.029960 0.007504 0.071607 0.036826 0.039053 -0.030206 -0.007705 -0.026076 0.039540 -0.064944 0.004114 0.004690 -0.045035 0.109450 0.065660 0.082031 -0.023712 -0.009786 -0.024168 0.091550 -0.014359 -0.136078 0.003437 0.050790 -0.088226 -0.054636
kaya 0.032577 0.052904 -0.014389 -0.039172 -0.011102 -0.056103 -0.136686 0.037624 -0.103427 0.008063 0.118770 0.061456 -0.007601 0.078049 0.073420 0.022580 -0.050765 -0.004577 0.013433 0.028984 -0.088313 0.153558 -0.059528 -0.024709 0.143558 -0.015455 0.047789 -0.008318 0.035311 0.006073 -0.014746 0.031215 0.002364 0.065327 0.039301 -0.039584 -0.015424 0.055996 -0.023099 -0.006061 -0.024399 0.001590 -0.012537 0.025823 0.020609 -0.007645 0.023507 0.028143 0.023752 -0.091361 -0.007790 0.042879 -0.036926 -0.028357 0.043103 -0.012932 -0.008033 -0.041967 -0.061184 0.039473 -0.003943 -0.047770 0.011633 -0.011577 -0.000302 -0.015835 0.055303 0.058182 0.026777 0.092649 -0.073550 0.037069 0.035718 0.077420 0.052019 -0.009014 -0.043235 -0.084968 -0.027159 0.008350 -0.014818 -0.016689 0.011851 0.116640 -0.048601 -0.126309 -0.023514 0.050816 0.005814 -0.049192 -0.043500 0.085477 0.012908 -0.051546 -0.014702 0.034466 0.014854 0.048606 0.101365 -0.029577
biru -0.022992 0.059160 -0.028470 -0.031308 0.006173 -0.064764 -0.185082 0.125997 -0.151264 0.004827 0.091257 -0.056066 0.061098 0.030216 0.139551 0.019391 -0.026461 -0.028109 0.046940 -0.001700 -0.114263 0.134188 -0.003927 -0.046227 0.032389 0.018461 0.115442 -0.062628 0.058495 -0.042707 -0.097240 0.132408 0.031710 0.109371 0.036885 -0.058342 -0.046941 0.063822 -0.069197 0.057911 0.042897 0.016288 -0.054113 -0.050792 -0.021234 0.083119 0.069323 0.007515 0.015307 -0.040318 -0.016652 0.127060 -0.085607 -0.087412 -0.015375 -0.021128 -0.059409 -0.098772 -0.049659 0.053542 -0.062864 -0.030751 0.026059 0.083062 0.075273 -0.032757 0.016694 0.093900 0.076626 0.107621 -0.030547 0.032469 0.110177 0.033969 0.021387 -0.065360 0.014881 -0.098501 0.010226 0.025949 0.037645 -0.057489 0.088209 0.064992 0.051482 -0.126797 -0.043616 0.208843 0.097694 0.052707 -0.053415 0.105416 0.038592 -0.030595 -0.042620 -0.053182 0.039191 0.126047 0.066649 -0.092291
foraminifera -0.099165 -0.218155 -0.113869 0.085699 -0.030480 0.128379 0.233281 -0.135489 0.326523 0.067960 -0.195384 -0.015518 -0.021502 -0.081951 -0.207974 -0.082504 0.110089 0.073295 -0.019521 -0.123805 0.200769 -0.333582 0.087148 -0.024113 -0.271785 0.084191 -0.141117 0.132275 -0.175343 -0.037778 0.123171 -0.189374 -0.023590 -0.231510 -0.073891 0.146768 0.059526 -0.151275 0.033007 -0.195930 -0.012509 0.001458 0.148551 -0.021157 -0.022837 -0.051258 -0.073242 -0.004912 -0.071467 0.225361 0.125304 -0.155540 0.182158 0.152235 -0.011844 0.028912 0.111178 0.123691 0.128733 -0.085985 0.015605 0.040438 -0.029462 -0.128292 -0.092558 0.051752 -0.044440 -0.173902 -0.068025 -0.372968 0.039597 -0.125617 -0.247599 -0.112676 -0.160319 0.059507 0.054095 0.326874 0.018949 -0.102211 -0.094619 0.059860 -0.105148 -0.317183 -0.044051 0.302205 0.031029 -0.243228 -0.158105 0.045216 0.081780 -0.179615 -0.101591 0.296430 0.100869 -0.057196 -0.055731 -0.231048 -0.222568 0.057263
karbonatan 0.059350 0.021576 -0.033603 0.008678 -0.022044 0.029289 -0.027238 -0.046116 -0.004784 0.001763 0.036260 0.039201 -0.033939 0.065122 0.005761 -0.017195 -0.028294 0.002243 -0.011828 0.022927 -0.001937 0.054858 -0.078532 -0.022201 0.053124 -0.026559 -0.013360 0.005472 0.012698 0.036985 0.071552 -0.029947 0.005854 0.020292 0.039626 0.012998 0.016869 -0.022988 0.043350 -0.042796 -0.056729 -0.004695 -0.015359 0.045616 0.016988 -0.100199 -0.030985 0.054210 -0.034633 -0.047656 -0.010840 -0.064513 0.010315 0.023286 0.051111 0.019286 0.024467 0.062749 -0.035531 0.054150 0.052414 0.029922 -0.002306 -0.026838 -0.055871 0.008745 0.018313 -0.002286 0.007440 0.052758 -0.070064 0.039432 -0.024037 0.017819 0.043753 0.054152 -0.063631 -0.002141 -0.010318 -0.024250 0.004993 0.046151 -0.041037 0.006188 -0.073694 -0.036892 0.016867 -0.066364 -0.043966 -0.111024 -0.069579 0.051356 0.036749 -0.043770 -0.055458 0.113813 0.059756 -0.009134 0.035948 0.016945
bidang -0.159150 -0.072959 -0.100147 0.033556 -0.001422 0.011370 0.115922 -0.014382 0.249004 0.061332 -0.086903 0.008699 0.063543 -0.031746 -0.130734 -0.103680 0.044558 0.042457 0.044463 -0.112189 0.099412 -0.144892 0.049296 0.039374 -0.119289 0.047600 0.029236 0.159340 -0.106975 -0.000983 0.054752 -0.096525 0.047061 -0.141585 -0.009463 0.111498 -0.053958 0.037283 0.055461 0.111322 -0.033153 0.036234 0.095245 0.058852 0.091573 -0.054226 0.053161 -0.011791 0.039068 0.137688 0.046256 0.090105 -0.020331 0.060401 0.005819 0.118040 0.114947 0.002932 0.013492 -0.041971 -0.092407 -0.111681 0.004698 -0.084897 -0.037634 0.047646 0.018961 -0.097400 -0.007507 -0.364320 -0.045651 -0.166445 -0.185476 0.031361 -0.129604 -0.063575 0.079103 0.158611 -0.047286 -0.035652 0.017682 -0.029090 0.011275 -0.105424 0.089717 0.218819 0.060550 -0.133674 -0.136874 0.121297 0.086184 -0.116153 -0.046985 0.113086 0.141753 -0.048632 0.034031 -0.128603 -0.083775 -0.008164
